SVM-light Version V6.02
0 # kernel type
3 # kernel parameter -d 
1 # kernel parameter -g 
1 # kernel parameter -s 
1 # kernel parameter -r 
empty# kernel parameter -u 
137151 # highest feature index 
22204 # number of training documents 
6240 # number of support vectors plus 1 
-0.4932936 # threshold b, each following line is a SV (starting with alpha*y)
-0.00055834350870157944003030481283645 1:1 10:1 82:1 83:1 137:1 1290:1 1926:1 2774:1 2949:1 8109:1 #
0.00055834350870157944003030481283645 1:1 8:1 14:1 27:1 28:1 40:1 68:1 78:1 82:1 88:1 109:1 115:1 121:1 123:1 150:3 162:1 163:2 226:1 228:1 242:1 311:1 403:1 407:1 408:1 460:1 536:1 539:1 572:2 680:1 780:1 974:1 1412:1 1650:1 1662:1 1998:1 2589:1 3619:1 3703:1 4939:1 10360:1 13058:1 14393:1 17595:1 19662:2 20282:1 #
-0.00055834350870157944003030481283645 1:1 3:1 8:2 10:14 13:2 20:80 21:1 22:1 23:1 25:1 28:12 29:4 33:1 41:1 43:1 46:1 56:1 61:3 64:2 66:1 68:1 83:1 111:3 117:3 127:2 137:1 141:1 150:1 163:3 172:1 179:1 180:1 189:1 254:1 287:1 403:1 510:1 549:1 572:2 635:1 739:1 770:1 876:7 910:1 917:2 943:1 964:2 990:1 1005:1 1037:2 1060:1 1170:1 1242:1 1355:1 1431:1 1534:1 1729:1 1744:1 1753:1 1929:1 2195:5 2524:1 2869:1 3097:1 3329:1 3501:1 3617:1 4317:1 4394:1 4399:1 4882:1 4914:1 5378:2 5382:1 5472:1 6742:1 7611:1 8362:1 8724:1 9742:1 10744:1 14394:2 14406:1 16383:1 16901:1 17108:1 17189:2 17190:1 17191:1 #
0.00055834350870157944003030481283645 1:1 #
-0.00055834350870157944003030481283645 1:1 8:2 10:4 14:4 22:2 23:3 28:2 68:3 75:2 84:1 109:1 115:1 123:2 124:1 128:1 140:2 163:1 164:1 210:1 232:1 242:1 275:1 306:2 308:1 327:1 337:1 363:1 364:1 365:1 403:1 469:2 495:1 562:2 872:1 941:1 983:1 1179:1 1243:1 1270:1 1394:1 1854:1 2268:1 2464:1 2656:2 3195:1 3332:1 3537:2 4612:1 4882:1 6249:1 8843:1 45388:1 50672:1 56992:1 #
-0.00055834350870157944003030481283645 1:1 8:2 10:8 13:2 14:3 19:2 20:2 27:1 31:1 41:1 43:1 48:2 54:1 68:2 75:1 81:1 82:2 83:2 107:1 123:1 128:3 150:4 163:6 164:1 169:1 209:1 226:1 252:1 297:1 306:1 336:1 437:1 460:3 497:1 501:1 523:1 531:1 537:1 539:1 541:1 548:1 622:2 655:1 658:1 660:1 703:1 704:2 715:2 718:1 747:1 750:1 867:1 887:1 973:1 1034:4 1047:1 1074:1 1133:2 1186:1 1187:1 1254:1 1259:1 1303:1 1341:2 1404:1 1405:1 1646:1 1648:1 1655:1 2044:1 2172:1 2175:1 2592:1 2909:1 2981:1 3020:1 3340:1 3482:1 4122:1 4482:1 4777:1 5007:2 6025:1 6201:1 7648:1 8030:1 8818:1 9344:1 11388:1 14975:1 19494:1 42331:1 50734:3 50907:1 52872:1 62826:1 #
-0.00055834350870157944003030481283645 1:1 8:1 10:4 19:1 25:1 27:1 28:2 32:1 40:2 54:1 68:2 82:2 83:2 128:2 133:1 137:1 149:2 150:2 151:1 226:1 311:1 408:1 460:1 613:1 647:1 876:1 923:2 937:1 1036:1 1256:2 1296:1 1341:1 1724:1 1902:1 2508:1 2551:1 2592:1 3444:2 3648:1 3655:1 3743:1 3753:1 5295:1 5452:1 8747:2 14975:1 36598:1 50667:1 56396:1 #
0.00055834350870157944003030481283645 1:1 8:2 10:6 14:1 20:1 21:2 28:1 48:1 54:1 70:2 111:2 117:2 135:1 161:1 228:1 242:1 252:2 254:2 294:1 460:2 572:1 850:1 874:2 1312:4 1519:3 1823:1 2007:3 3622:2 3631:1 5655:1 8904:2 60369:2 68630:1 68631:2 68632:1 #
0.00055834350870157944003030481283645 1:1 10:5 14:1 19:1 20:1 25:1 27:1 48:1 68:3 109:1 128:1 133:1 150:3 162:1 163:1 216:1 226:2 242:2 287:1 309:1 408:1 409:1 517:1 533:1 539:1 623:1 658:1 715:1 718:1 1034:4 1387:1 1412:1 1609:1 1626:2 1998:1 2172:1 2884:1 2938:1 3608:1 3987:1 4464:1 5050:1 6197:1 10608:1 46526:1 47787:1 47788:1 47789:1 47790:1 47791:1 47792:1 47793:1 #
0.00055834350870157944003030481283645 1:1 8:2 10:15 14:3 20:6 28:2 40:3 43:3 56:1 60:2 68:5 83:1 88:1 109:2 115:1 124:1 128:1 137:1 140:1 169:1 226:2 232:1 252:2 274:1 290:1 297:1 306:2 331:1 357:1 533:1 558:1 567:1 572:1 576:1 613:1 656:2 660:1 687:1 704:1 917:1 991:1 995:1 1133:1 1247:1 1268:1 1355:1 1392:1 1406:1 1649:1 1815:2 1841:1 2046:1 3105:1 3177:2 3371:1 3818:1 3826:1 3883:1 3945:1 4003:1 4008:1 4204:1 4348:1 4912:1 5048:1 5049:1 5127:1 5295:1 5987:1 7648:2 7978:1 8031:1 8682:1 8690:1 8809:1 10450:1 10496:2 10620:1 11171:1 12978:1 14071:1 15794:1 16154:2 17691:1 19269:1 20051:1 20347:1 21064:2 24189:1 47187:1 48115:5 48116:1 48117:1 48118:1 48119:1 48120:1 48121:1 48122:1 48123:1 48124:1 #
0.00055834350870157944003030481283645 1:1 68:1 125:1 150:1 163:1 292:1 409:1 568:1 2061:1 #
0.00055834350870157944003030481283645 1:1 8:2 10:12 13:1 14:1 20:2 21:1 23:1 25:1 28:2 40:1 48:1 51:1 56:1 68:5 70:3 75:1 109:1 162:1 226:1 252:1 285:1 287:1 294:1 306:1 332:1 336:1 348:1 403:1 409:1 572:1 574:1 865:1 909:1 964:2 1076:1 1295:1 1367:1 1797:1 2497:1 2751:1 2958:1 2966:1 4356:1 4390:1 4612:2 4938:3 4996:1 5249:1 6726:1 7668:1 10631:1 19529:1 20413:1 20786:1 20787:1 20788:1 49277:1 71162:1 100661:1 100662:1 100663:3 100664:1 100665:1 100666:1 #
-0.00055834350870157944003030481283645 1:1 8:7 10:26 13:1 14:13 20:2 25:4 27:2 28:3 39:1 40:8 43:4 48:1 68:8 70:1 74:1 75:4 78:2 81:1 82:2 83:3 88:4 91:1 94:5 101:1 111:2 115:2 117:2 124:1 128:3 131:1 133:3 140:1 150:10 157:1 161:3 162:3 163:7 167:10 226:6 231:1 232:1 242:2 252:3 287:1 292:1 293:1 306:3 311:3 327:1 332:1 336:1 348:2 365:1 367:1 408:6 409:2 413:1 460:2 491:1 498:1 509:1 510:1 516:1 517:3 528:1 533:4 539:26 541:3 554:8 558:1 559:2 560:1 570:1 572:9 575:2 576:1 601:8 614:1 628:2 636:1 680:1 708:1 718:2 741:2 766:1 769:1 770:1 780:1 847:1 853:1 903:1 938:1 954:1 955:3 964:2 966:1 1008:1 1014:1 1080:1 1137:1 1139:1 1180:1 1262:1 1406:2 1531:2 1533:2 1649:1 1650:1 1688:1 1901:1 1996:1 2007:2 2060:1 2131:5 2145:1 2152:1 2191:1 2306:2 2405:1 2497:1 2522:1 2547:2 2592:1 2634:1 2738:1 2810:1 2835:3 2845:1 2884:3 2993:1 3095:1 3471:1 3625:1 3679:1 3788:2 3830:1 3844:1 4265:1 4283:2 4318:1 4356:4 4612:1 5142:1 5359:1 5370:1 5508:1 6161:1 6188:2 6740:1 6741:1 7099:3 7377:27 7604:1 7605:2 7606:1 7607:2 7608:1 7609:1 7610:1 7611:1 7612:1 7613:1 7614:2 7615:1 7616:1 7617:1 7618:2 #
-0.00055834350870157944003030481283645 1:1 10:2 14:2 25:1 56:2 68:1 86:1 107:1 158:1 170:1 189:1 240:1 357:1 484:1 501:1 695:1 1219:2 2233:1 4258:1 5493:3 #
0.00055834350870157944003030481283645 1:1 8:5 10:4 14:3 25:1 40:3 43:2 48:1 83:1 124:1 128:1 137:1 306:1 531:1 547:1 966:1 1083:1 1798:1 2198:1 2567:1 2738:1 2810:1 3109:1 3901:1 5970:1 8433:1 9332:1 9394:1 12496:1 16868:1 17628:1 20256:1 22170:1 25275:1 25380:1 27131:1 41176:1 #
0.00055834350870157944003030481283645 1:1 8:2 10:14 13:2 14:3 27:1 28:2 31:1 43:1 46:1 48:1 60:1 68:6 75:2 82:1 83:2 107:2 109:2 111:2 117:2 123:1 128:1 131:1 133:1 137:1 150:3 161:3 162:1 214:1 226:3 242:1 252:1 254:1 306:1 336:1 408:1 409:1 411:1 460:1 509:1 539:1 572:2 711:1 729:1 747:1 780:1 849:1 941:1 964:1 966:1 973:1 1063:1 1069:1 1076:1 1254:1 1289:1 1372:1 1531:1 1533:1 1815:1 2007:3 2016:1 2037:1 2835:1 3229:2 3716:1 4241:1 4569:1 4951:1 5398:2 5653:1 5655:1 6078:1 6161:1 6729:1 7409:1 10320:2 18659:1 21940:2 22470:1 72604:1 136169:1 136170:1 #
0.00055834350870157944003030481283645 1:1 8:10 10:19 14:14 19:4 25:2 27:2 40:12 43:2 48:6 54:2 63:2 68:5 78:1 82:14 83:1 88:2 90:1 92:1 94:1 109:1 111:1 115:2 116:2 117:1 118:1 123:6 124:3 125:2 128:3 131:2 132:1 133:1 137:1 140:1 150:3 151:1 155:2 162:1 177:2 191:1 224:1 227:4 232:5 242:1 286:4 291:1 292:2 302:1 306:1 357:3 364:1 371:2 403:1 408:1 409:1 450:2 451:1 460:8 488:1 497:1 501:1 508:3 523:1 525:1 531:1 538:1 558:1 560:1 576:1 589:1 614:2 617:1 632:1 643:2 654:2 658:1 720:1 767:2 778:1 835:1 975:1 1022:1 1053:1 1094:1 1133:2 1155:3 1162:1 1171:1 1227:1 1254:3 1270:2 1310:1 1321:1 1341:2 1412:1 1529:1 1548:1 1560:1 1579:1 1645:1 1649:1 1676:1 1902:1 1978:1 2057:1 2086:1 2130:1 2216:1 2235:1 2441:1 2561:1 2614:1 2691:1 2795:1 2812:1 3116:1 3167:1 3262:1 3269:1 3339:1 3354:2 3677:1 3697:2 4274:1 4339:1 4587:1 4656:3 4777:1 4795:1 5015:1 5071:2 5115:1 5593:1 5700:1 6103:1 6317:1 7097:2 7675:1 7850:1 10069:1 10806:1 11428:1 12257:1 12330:1 12854:1 14224:1 16157:1 17041:2 17550:1 20976:1 24127:1 27438:1 28081:1 38942:1 40232:1 41123:1 48285:1 49095:1 49096:1 49097:1 49098:1 49099:2 49100:1 49101:1 49102:1 49103:1 49104:1 49105:1 49106:1 49107:1 49108:1 49109:1 49110:1 #
-0.00020277242914454497594092807766231 1:1 8:15 10:10 14:3 19:1 21:1 23:3 25:2 28:10 31:2 34:2 40:4 41:6 42:9 47:9 48:1 50:5 51:2 62:1 68:6 76:1 78:1 81:1 82:3 83:6 86:1 88:1 91:1 111:7 115:1 117:7 123:1 124:2 128:1 129:2 133:1 150:3 157:1 169:1 173:1 182:4 191:4 200:1 210:1 226:1 227:1 232:1 242:1 254:2 260:1 294:1 331:1 403:1 407:1 408:1 430:1 437:1 460:1 539:1 547:2 560:1 568:1 576:2 589:1 613:1 618:1 640:1 645:1 648:1 654:1 660:1 708:1 711:1 718:1 877:1 907:1 942:2 995:1 1076:1 1155:1 1254:1 1296:1 1372:1 1404:1 1524:1 1543:1 1548:1 1593:6 1627:1 1785:1 1798:1 2000:1 2061:2 2217:1 2305:1 2834:1 3034:1 3095:1 3178:2 3295:1 3335:1 3811:1 3850:1 3869:1 3901:1 3923:2 4054:1 4321:1 4342:1 4388:1 4505:1 5040:1 5185:2 5453:1 5553:1 5758:1 6146:1 6238:1 7645:1 7728:1 9007:1 10526:1 12631:2 14975:2 15793:1 19990:1 34722:1 46999:1 50667:1 50740:1 51079:2 52102:1 53328:1 54486:12 57087:1 57088:1 #
0.00055834350870157944003030481283645 1:1 10:47 20:36 21:4 23:2 25:1 28:1 29:35 31:1 33:7 40:1 41:2 50:3 51:7 56:3 111:1 117:1 128:1 160:1 171:1 182:1 191:3 254:3 326:1 371:3 407:2 533:1 645:1 694:1 736:4 877:3 915:3 917:7 933:2 1042:1 1053:4 1137:1 1180:1 1823:2 1830:1 1883:1 2239:5 2519:1 2521:1 2578:1 3031:1 3032:1 3041:1 3167:1 3270:1 3328:2 3387:1 3541:1 3611:1 3656:1 3808:1 3850:2 4433:1 4932:1 5127:1 5161:1 5618:1 5622:1 5968:1 5970:1 5975:1 6078:2 6121:1 6890:1 7107:2 7330:2 8318:1 8395:1 8411:1 8712:1 8824:1 8940:1 9530:1 10315:3 10859:1 11060:1 11347:2 11557:1 12468:1 13170:1 13572:1 14399:1 16868:4 17078:1 18659:1 20532:1 22135:1 22170:2 22171:1 22487:1 25274:1 25328:4 25380:3 26666:1 28563:1 29308:1 31470:1 35782:2 35790:1 36613:1 36766:1 37912:1 38832:1 41169:1 41170:4 41174:2 41175:1 41176:2 41177:1 42246:1 42652:2 46297:1 50408:1 91892:2 117905:1 117906:1 117907:1 117908:1 117909:1 117910:2 117911:1 117912:1 117913:1 117914:1 #
0.00055834350870157944003030481283645 1:1 10:12 14:1 20:8 27:1 28:3 29:6 48:2 54:1 56:3 68:1 78:1 86:1 88:1 111:6 117:6 124:1 140:2 179:1 226:1 371:1 531:1 558:1 687:1 874:1 933:6 941:1 964:1 1026:1 1186:1 2519:1 2520:1 2581:1 4521:1 5843:1 5893:1 9002:1 10064:1 12168:1 12229:1 13354:1 16316:6 20535:1 24275:1 27935:1 29060:6 46658:1 46662:1 46663:1 46664:1 46665:1 46666:1 46667:1 46668:1 47208:1 47209:1 47210:1 47778:1 47779:1 47780:1 #
-0.00055834350870157944003030481283645 1:1 8:5 10:17 14:5 19:5 20:35 28:4 40:1 48:5 54:1 68:1 70:1 82:3 83:2 86:2 88:1 107:1 111:1 117:1 121:1 123:1 128:5 133:2 137:1 150:3 226:2 227:1 236:1 242:1 248:1 285:2 291:3 292:1 306:4 408:1 411:3 460:1 497:1 525:1 531:1 541:1 601:1 654:1 752:1 766:1 945:4 1034:2 1036:1 1092:1 1134:1 1164:1 1179:1 1199:1 1306:1 1377:1 1419:1 1645:1 1894:1 2007:2 2130:1 2268:1 2418:1 2581:1 2599:1 3050:1 3268:1 3574:3 3723:1 3748:1 4143:1 4284:1 4317:1 4718:1 5121:1 6299:1 7327:1 7887:1 8535:1 9956:1 12605:1 15145:2 15148:1 16943:1 22276:1 37669:1 42403:1 47838:1 50664:1 51151:1 51939:1 52046:1 52820:1 52822:1 53029:1 54403:1 55888:1 56421:1 56423:1 #
0.00055834350870157944003030481283645 1:1 8:6 10:7 13:7 14:15 19:6 20:3 22:1 25:1 27:2 28:5 30:2 40:4 43:4 48:7 51:1 54:2 68:1 75:1 82:3 83:1 88:2 109:2 115:1 124:2 127:1 128:2 150:5 159:3 162:2 163:7 182:1 214:1 232:4 252:2 259:1 286:5 287:4 306:2 308:1 337:2 348:1 408:1 430:1 460:2 510:1 533:1 541:1 548:3 572:2 576:7 577:1 620:1 631:1 643:3 720:1 770:1 898:1 911:1 943:1 955:1 1037:1 1094:1 1175:1 1233:1 1296:1 1531:1 1533:1 1599:1 1620:1 1767:1 1915:1 2359:3 2592:1 2607:1 2683:1 2884:1 2939:1 3052:1 3198:1 3339:1 3478:1 3761:1 4243:1 7266:1 7655:1 9838:1 10409:1 10915:1 11722:1 11890:1 13960:1 16048:1 16352:1 16376:1 17078:1 17989:1 19238:1 20200:1 20568:1 20569:1 24780:1 25057:1 25167:1 25316:1 26019:1 26125:1 26343:1 26518:1 27599:1 27613:1 27802:1 28408:1 30042:1 30112:1 30366:1 31094:1 32890:1 33927:1 33947:1 34688:1 35436:1 36926:1 36965:1 37299:1 37625:1 37692:1 38888:1 39047:1 39283:1 42084:1 42451:1 43042:1 43377:1 48489:1 48558:1 49154:1 49221:1 52695:1 54270:1 55864:1 56415:1 67809:1 72265:1 74723:1 80001:1 85049:1 86560:1 87208:1 89456:1 91412:1 94298:1 100937:1 104761:1 107599:1 109461:1 110742:1 119627:1 119628:1 119629:2 119630:1 119631:1 119632:1 119633:1 119634:1 119635:1 119636:1 119637:1 119638:1 119639:1 119640:1 119641:1 119642:1 119643:1 119644:1 119645:1 #
-0.00055834350870157944003030481283645 1:1 8:21 10:26 13:1 14:8 19:8 20:17 23:1 25:2 27:2 28:9 39:2 40:17 42:1 43:2 48:5 50:2 51:1 54:2 59:1 63:2 68:7 70:1 75:3 78:2 82:4 87:1 88:4 94:1 109:1 111:3 115:1 117:3 118:2 123:2 124:2 128:10 132:1 137:1 163:2 167:2 177:2 226:1 227:1 228:3 232:2 236:1 240:1 242:2 254:1 270:1 274:1 286:1 291:2 294:1 299:1 306:1 327:1 357:1 371:1 389:6 403:1 407:1 450:3 452:1 497:1 501:1 523:1 539:1 548:2 558:1 570:1 572:3 596:2 614:1 624:1 627:1 628:1 632:4 658:1 672:1 687:1 750:1 766:2 781:1 787:1 877:1 917:3 942:1 964:1 990:1 998:2 999:2 1000:2 1009:1 1012:1 1034:4 1097:1 1133:2 1146:1 1179:4 1256:1 1259:1 1264:1 1312:2 1381:1 1394:2 1525:1 1531:2 1533:2 1547:1 1593:2 1669:1 1691:2 2007:1 2023:1 2041:1 2180:1 2195:1 2314:1 2322:1 2323:3 2424:1 2711:1 2812:1 2845:1 2981:1 3052:1 3322:1 3339:1 3347:1 3523:1 3653:1 3694:1 3704:1 3707:1 3854:1 3951:1 4082:1 4122:1 4272:1 4307:1 4308:1 4317:2 4536:1 4740:1 4945:1 4959:1 4988:1 5027:1 5097:2 5185:1 5398:1 5584:1 5936:1 5970:2 5980:1 5986:1 6021:1 6285:1 6415:2 7086:1 7939:1 7940:3 7947:1 7957:2 7971:3 7973:1 8281:1 8790:3 9274:1 9367:1 9449:1 9540:1 10559:1 12146:1 12781:1 12853:1 12854:1 12963:1 13199:1 13492:1 13647:1 13948:1 14226:1 14274:2 14526:1 15451:1 15452:1 15453:1 15454:1 15455:1 15456:1 15457:1 15458:1 15459:1 15460:1 15461:2 15462:1 15463:1 15464:2 15465:1 15466:1 15467:1 15468:3 15469:1 15470:1 15471:6 15472:1 15473:1 15474:1 15475:1 15476:1 15477:1 15478:2 15479:1 15480:1 15481:1 15482:1 15483:1 15484:1 15485:1 15486:1 15487:1 15488:1 15489:1 15490:1 15491:1 #
-0.00055834350870157944003030481283645 1:1 10:3 14:2 19:2 25:1 28:1 40:1 43:1 48:3 68:2 86:1 123:1 124:1 150:1 167:2 226:1 232:1 242:1 286:1 306:1 336:1 460:1 539:1 548:1 668:1 751:1 910:1 937:1 1013:1 1093:1 1571:2 2198:1 2417:1 2440:1 2869:2 3074:1 3710:1 3753:1 5312:1 5593:1 9840:1 10175:1 14975:1 48585:1 55820:1 #
0.00055834350870157944003030481283645 1:1 10:6 19:1 28:2 30:1 31:1 40:1 48:1 56:5 68:2 82:1 83:2 94:1 137:2 149:1 150:1 163:1 232:3 306:1 337:1 460:1 497:1 525:1 559:1 596:1 769:1 1355:1 1572:1 1649:1 1669:1 2519:1 2520:1 3571:1 4271:1 4903:1 7633:1 10689:1 20532:1 24569:1 32204:1 121534:1 121535:1 121536:1 121537:1 121538:1 #
0.00055834350870157944003030481283645 1:1 8:12 10:13 14:21 19:6 20:9 21:1 25:2 27:3 32:1 40:7 42:1 48:10 68:10 81:2 83:10 88:2 93:1 109:2 111:1 117:1 121:3 123:5 124:1 128:7 131:1 133:1 137:8 162:1 167:14 191:1 196:1 227:4 228:2 229:1 242:3 284:1 286:2 306:2 311:1 327:1 337:1 365:1 381:1 406:1 452:1 460:1 491:1 516:1 517:1 523:1 525:1 546:1 562:1 576:1 605:1 614:1 619:1 628:1 632:1 635:1 639:1 658:1 660:2 753:1 780:1 877:1 893:1 950:1 966:1 1033:1 1141:2 1146:1 1155:1 1179:1 1230:1 1254:2 1341:4 1394:1 1406:2 1669:1 1809:1 1858:1 1871:1 2023:1 2044:1 2085:1 2172:1 2175:1 2215:1 2296:1 2395:1 2442:1 2555:1 2730:1 2774:1 2981:1 2990:1 3320:1 3523:1 3574:2 3813:2 3829:1 3989:1 4141:1 4246:1 4303:1 4403:1 4437:1 4532:2 4633:1 4768:1 4995:1 5123:1 5165:1 5509:1 5755:1 5907:1 6019:1 6021:1 6202:1 6206:1 6332:1 6401:2 6735:1 6769:1 6945:1 7617:1 7962:1 8029:1 8038:1 8468:1 8535:1 8887:2 8943:1 9007:1 9970:1 10360:2 10723:1 10757:1 11115:1 11449:1 11473:1 11782:2 12132:3 12135:1 12994:1 13249:3 13640:1 13801:1 13966:1 14523:1 14625:1 14855:1 15479:1 15992:1 16379:1 17563:1 17587:1 19438:1 20208:1 20273:1 21372:1 23002:1 24360:2 24747:1 28205:2 30671:1 31561:1 38495:3 39241:1 39928:1 41123:1 41890:1 42048:2 43307:1 46604:1 50029:1 54598:1 56179:1 57130:1 57367:1 57609:2 59700:2 74108:1 76683:1 88872:1 121273:2 121274:6 121275:4 121276:4 121277:1 121278:1 121279:1 121280:1 121281:1 121282:1 #
0.00055834350870157944003030481283645 1:1 8:8 10:10 14:3 15:1 19:4 20:2 21:1 32:1 40:2 41:1 43:6 63:2 68:4 70:1 82:7 83:1 88:3 93:1 99:1 116:1 123:2 124:4 128:4 131:1 133:2 140:4 149:1 150:4 164:1 169:1 170:1 177:1 226:1 236:1 242:4 252:1 287:1 297:1 306:4 311:1 350:1 364:1 381:1 403:1 404:1 437:1 469:1 491:1 494:1 528:1 539:1 548:4 558:2 571:1 614:2 623:1 648:1 711:1 715:2 746:1 853:2 915:1 964:1 1076:1 1171:1 1311:1 1570:1 1645:1 1665:1 2160:3 2248:1 2323:2 2445:1 2671:2 2846:2 3057:1 3079:1 3178:2 3756:1 3765:1 3831:1 3840:1 3980:1 4003:1 4374:1 4915:1 5320:1 6184:1 6755:4 8930:1 8998:2 9987:1 13200:2 14650:1 14854:1 15795:1 17088:1 18682:1 19392:1 23173:2 24550:3 25360:1 50913:2 54970:1 57871:1 69970:1 69971:1 69972:1 69973:1 #
-0.00055834350870157944003030481283645 1:1 8:3 10:6 14:1 25:2 27:1 28:1 40:2 43:2 48:1 54:1 56:3 68:2 75:1 84:1 101:1 104:1 109:1 133:1 150:2 226:1 227:1 242:1 272:1 287:1 572:1 587:2 687:2 964:1 1268:1 1270:1 1524:1 1690:1 1746:1 1753:2 2084:1 2321:1 2519:1 2701:2 2702:2 2713:1 3164:1 3192:1 3722:1 7818:1 8864:2 8897:1 8898:2 11841:1 #
-6.9634815492746387826858422975818e-05 1:1 10:18 19:7 20:2 21:1 25:7 28:34 56:2 186:1 226:7 266:1 308:1 539:45 650:1 730:2 746:2 786:1 880:22 1049:1 1063:22 1152:1 1216:1 1243:1 1312:2 1348:1 1653:1 1886:7 2105:7 2386:1 2855:7 3363:1 3584:5 4318:1 4331:1 4369:1 4465:22 4497:1 5605:7 6942:15 7070:1 8904:1 8924:1 9141:1 10575:7 17188:1 21012:1 30112:15 35366:1 58718:1 67014:1 99542:3 99989:22 100028:1 #
-0.00055834350870157944003030481283645 1:1 8:14 10:18 13:4 14:14 19:5 21:1 23:1 25:4 27:1 28:3 40:5 43:1 47:11 48:7 56:13 68:15 75:1 88:3 90:1 93:2 101:3 109:1 115:1 116:1 123:3 124:6 128:6 133:1 137:2 140:7 149:2 150:3 157:1 162:1 177:1 196:1 202:1 208:1 226:2 227:1 228:2 236:1 242:1 291:3 294:3 302:1 306:3 310:1 311:1 337:1 369:1 403:3 424:1 437:3 481:2 501:1 519:1 523:1 525:1 529:1 531:1 537:1 538:1 544:2 548:3 555:2 557:1 558:1 559:2 570:1 571:1 572:5 575:1 613:2 620:2 628:1 643:1 657:1 668:1 672:1 673:1 715:1 724:10 766:1 770:2 788:1 835:1 907:1 964:1 1063:1 1133:1 1179:1 1183:1 1259:1 1322:1 1332:1 1345:1 1355:1 1394:1 1406:4 1423:1 1578:1 1648:1 1665:1 1815:1 1896:1 2000:1 2018:1 2053:1 2055:4 2056:7 2131:1 2139:1 2200:1 2316:1 2319:1 2321:1 2322:1 2363:2 2424:1 2444:1 2448:1 2488:1 2519:1 2528:1 2567:1 2578:1 2579:1 2591:1 2747:1 2841:2 2861:1 2929:1 2949:1 2994:1 2996:1 3036:2 3108:1 3198:1 3220:2 3316:1 3347:1 3523:4 3557:2 3877:1 3890:1 3970:1 3978:1 4007:1 4409:2 4418:1 4430:1 4449:1 4555:1 4768:1 4939:2 5592:1 5594:7 5895:2 5947:1 6035:1 6086:2 6148:1 6493:1 6626:2 6692:1 7735:1 8090:1 8720:2 8793:1 8794:1 8874:1 8950:1 9676:1 10035:1 10199:1 10931:1 11267:1 11563:1 12475:1 12875:1 13105:1 14253:3 14449:1 14592:1 15871:2 16827:2 16829:3 19433:1 21607:1 28849:1 30845:1 32263:1 49778:2 52092:1 53452:1 56622:4 58826:1 59251:1 60863:1 67623:1 73639:1 110481:1 #
0.00055834350870157944003030481283645 1:1 8:10 10:21 13:3 14:29 19:3 20:1 25:3 27:2 28:1 40:5 43:7 47:3 48:17 54:2 56:1 63:3 68:14 75:2 82:16 87:1 88:3 94:6 109:3 111:1 115:2 123:6 125:1 128:4 131:1 140:2 149:1 150:12 155:1 161:1 177:1 213:1 226:7 227:1 228:2 232:2 242:5 252:4 254:2 285:2 287:1 290:3 294:1 306:5 309:1 311:1 327:1 332:1 336:2 364:1 403:9 408:1 409:1 491:1 516:1 525:1 548:1 554:4 572:5 613:1 614:1 622:3 632:1 643:1 654:2 658:2 660:1 673:1 715:1 765:1 766:1 769:3 781:1 916:2 917:1 954:1 955:2 995:3 1047:1 1053:1 1089:1 1113:2 1186:1 1200:1 1216:1 1225:2 1264:2 1312:1 1322:1 1327:1 1380:1 1381:1 1406:2 1540:1 1547:1 1585:1 1623:1 1648:2 1797:1 1997:1 2023:1 2105:1 2160:1 2172:1 2251:1 2267:1 2359:1 2397:1 2463:1 2557:1 2581:1 2724:1 2928:1 2981:1 2993:1 3048:1 3052:1 3094:1 3198:1 3221:1 3527:1 3620:1 3704:1 3948:5 3952:1 4271:3 4274:1 4317:1 4339:1 4991:1 4996:1 5027:1 5073:1 5231:1 5428:1 6041:3 6078:1 6123:1 6161:1 6771:1 6896:1 8127:1 9269:1 11751:1 11922:1 11935:1 12135:1 12358:1 13123:5 13647:1 13737:1 16386:3 17013:1 22448:3 23353:1 25817:1 28510:3 29201:1 30306:1 32210:1 32791:1 50122:1 50606:1 51508:1 55756:1 56185:1 62141:3 64203:1 69457:2 69458:1 69459:1 69460:1 69461:1 69462:1 69463:1 #
-0.00055834350870157944003030481283645 1:1 8:13 10:23 13:4 14:9 19:2 20:4 25:5 27:3 28:11 32:2 40:9 43:5 48:4 54:3 56:14 68:9 70:1 75:2 78:1 79:1 83:6 88:1 90:1 94:1 111:1 117:1 118:1 124:2 128:3 131:1 133:5 137:3 140:1 150:18 151:1 162:1 163:1 164:1 167:8 173:1 191:1 210:1 226:4 242:3 246:1 291:1 306:1 311:3 327:2 337:1 363:1 364:1 408:4 413:1 437:1 460:2 494:1 510:1 519:1 525:1 537:2 539:2 544:1 548:6 558:2 567:2 570:1 572:11 575:2 576:2 601:6 613:1 661:1 673:1 680:3 704:2 718:1 724:9 741:2 770:1 787:3 853:1 887:1 898:1 943:1 951:1 954:1 964:8 966:2 974:2 1006:2 1036:1 1053:1 1083:2 1097:1 1107:1 1179:3 1255:1 1296:2 1303:1 1315:4 1352:1 1407:1 1609:1 1871:1 1886:1 2037:1 2131:2 2140:1 2145:1 2195:1 2321:2 2403:1 2405:1 2461:3 2497:1 2519:3 2520:3 2521:3 2631:2 2660:1 2693:1 2884:2 2942:2 3098:1 3495:2 3531:1 3753:2 3810:1 3825:1 3876:1 3952:1 4077:1 4327:1 4331:3 4333:1 4356:2 4448:1 4958:6 4988:1 4994:1 5130:3 5135:3 5142:1 5211:1 5222:1 5249:2 5564:1 5681:1 6150:3 6188:2 6194:2 7861:1 8684:1 8712:1 10075:1 10370:1 10409:1 10926:1 11712:1 13871:3 14072:12 14073:1 14074:1 14075:1 14076:1 14077:1 14078:1 14079:1 14080:2 14081:1 14082:1 14083:1 14084:1 14085:1 #
0.00055834350870157944003030481283645 1:1 8:17 10:27 13:3 14:23 19:6 20:327 21:1 27:5 28:6 29:2 30:1 40:9 41:2 42:1 43:3 48:18 54:3 56:8 68:18 75:5 81:1 83:1 109:3 111:1 115:2 117:1 123:2 128:8 137:1 140:3 150:13 157:1 161:1 162:3 177:1 180:1 191:1 214:1 226:3 227:1 242:1 252:7 254:1 294:1 306:3 337:2 338:1 346:3 348:1 365:1 403:6 408:5 409:2 415:1 437:3 455:1 458:1 468:2 469:1 491:1 494:2 518:1 539:1 548:2 549:1 554:6 568:1 570:1 572:14 575:3 576:2 601:3 620:1 635:1 636:1 643:1 646:1 654:1 656:1 718:1 720:1 741:1 752:1 753:1 769:1 770:1 781:2 786:2 836:1 876:2 893:1 909:1 917:1 943:1 955:1 964:2 974:1 1047:1 1049:4 1068:1 1075:2 1089:1 1097:1 1113:1 1200:1 1216:1 1225:2 1241:3 1242:1 1262:7 1268:2 1270:3 1275:1 1290:1 1295:1 1312:1 1387:1 1406:4 1415:1 1419:1 1521:1 1530:1 1797:1 1812:1 1819:4 1838:1 2037:1 2145:2 2217:1 2222:1 2266:1 2332:1 2440:1 2470:1 2520:2 2684:1 2694:1 2773:4 2810:1 2835:1 2905:1 2939:2 3094:1 3320:1 3379:4 3485:1 3489:1 3510:1 3752:1 3809:1 3908:3 4236:2 4241:1 4251:2 4317:1 4323:1 4324:1 4342:1 4432:1 4716:1 4996:1 5044:1 5229:1 5255:1 5300:1 5509:1 5572:1 5637:1 5816:1 5895:1 6161:1 6193:1 6762:1 6883:1 6897:2 8924:1 9034:1 9141:2 9175:1 9616:1 9680:1 10014:1 11118:2 11254:2 11256:1 11862:1 12277:1 12535:3 13369:1 14305:4 15354:2 17683:1 19277:1 19679:1 19715:1 27683:1 34490:14 45651:1 53148:1 58938:1 60655:1 63483:1 64541:1 68705:1 68706:1 68707:1 68708:1 #
0.00029493081072510813744197433194927 1:1 20:2 27:1 48:1 75:1 83:1 123:1 151:1 226:1 232:1 460:1 491:1 539:7 558:2 687:1 697:1 1179:1 1431:1 1676:2 2170:1 2720:1 2809:1 4307:1 4612:1 4865:1 4914:1 6567:1 15999:1 20856:1 27164:1 27165:1 28237:1 31790:1 34124:2 41892:1 41893:1 41894:1 41895:1 41896:1 41897:1 41898:1 41899:1 41900:1 41901:1 #
0.00055834350870157944003030481283645 1:1 8:2 10:7 13:1 14:3 23:1 27:1 28:2 31:1 33:1 43:1 68:5 75:2 82:1 83:2 107:2 109:2 123:1 131:1 133:1 137:1 150:3 161:2 162:1 167:2 214:1 226:2 242:1 252:1 306:1 336:1 408:1 409:1 411:1 460:1 509:1 572:2 711:1 780:1 849:1 941:1 966:1 973:1 1069:1 1076:1 1289:1 1367:1 1815:1 2007:2 2037:1 2461:1 3229:2 4241:1 5398:2 5655:1 6161:1 6942:1 7556:1 10320:1 21940:2 26639:1 72604:1 136301:1 #
0.00055834350870157944003030481283645 1:1 8:7 10:19 20:7 21:11 22:1 23:4 25:6 28:51 29:4 30:2 34:2 41:6 42:2 43:1 50:4 56:18 70:3 86:2 99:2 111:10 117:10 130:2 137:2 160:1 161:1 163:8 167:2 172:2 173:3 198:1 279:4 297:6 371:4 407:1 455:5 500:1 572:1 579:2 581:4 646:2 684:1 730:2 872:1 877:4 917:6 924:1 964:2 972:2 983:2 1051:2 1053:1 1153:2 1235:2 1396:2 1447:2 2127:2 2163:2 2264:1 2268:1 2272:1 2305:1 2490:2 2516:1 2519:1 2520:1 2569:1 2601:1 2616:2 2628:2 2813:2 3387:2 3613:2 3761:1 3826:4 3923:4 3995:6 4098:4 4166:1 4284:1 4333:1 4560:2 5359:2 5881:4 6229:2 6349:2 7302:2 7377:1 7606:2 7746:3 7979:2 8328:1 8661:2 8884:2 9175:2 9457:1 9619:2 9632:2 10841:2 11060:2 11174:4 11379:1 13347:2 13993:1 14595:1 15357:2 17279:1 19225:2 19389:2 19653:1 19762:2 19929:2 19977:2 22283:2 22487:4 30846:2 35376:2 37625:2 39630:2 44942:2 47506:1 47700:2 50337:2 54211:2 64290:2 69227:1 69228:2 69229:2 69230:2 69231:2 69232:2 69233:2 69234:2 69235:2 69236:1 69237:2 69238:1 69239:1 69240:1 69241:1 69242:2 69243:3 69244:1 #
-0.00055834350870157944003030481283645 1:1 8:3 10:11 14:6 19:2 20:4 21:2 23:3 25:1 28:1 40:9 48:1 54:4 68:8 80:1 90:1 111:2 115:1 117:2 140:1 150:1 162:1 167:24 173:3 252:1 291:1 292:1 306:1 413:1 460:1 506:1 516:1 517:3 558:3 636:1 638:1 646:1 787:1 945:1 998:1 1199:1 1201:1 1222:1 1243:1 1255:1 1289:1 1307:4 1317:2 1367:1 1452:1 1878:5 2054:5 2060:1 2167:3 2561:1 2666:1 2690:9 3032:4 3115:1 3471:2 3492:1 4335:1 4340:3 4356:4 4359:5 4933:2 5081:2 5509:1 5636:1 5829:2 6144:2 6146:2 6150:3 6335:1 9273:1 20283:1 46279:1 51609:1 #
0.00055834350870157944003030481283645 1:1 10:7 14:2 19:1 20:1 25:1 28:2 56:6 127:1 150:1 167:2 254:1 297:1 613:1 622:1 964:2 1049:1 2032:1 2519:2 2834:1 4560:1 5255:1 5597:1 10907:1 13484:1 17283:1 24347:1 30662:1 34110:1 44943:1 50457:1 102117:1 102118:1 #
0.00055834350870157944003030481283645 1:1 8:6 10:11 13:2 14:3 19:4 20:3 23:1 27:2 28:1 31:1 40:4 43:1 48:1 51:1 56:4 68:2 83:1 88:1 99:1 109:1 111:1 117:1 124:1 137:1 144:1 167:1 177:1 219:1 224:1 242:1 291:1 306:1 357:2 408:1 428:1 460:1 508:1 517:1 531:1 537:1 548:2 563:1 624:1 628:1 763:1 839:1 964:1 1051:1 1179:1 1201:1 1230:1 1599:1 1649:1 2519:1 2812:1 3343:1 4459:1 4710:2 4780:1 4996:1 5437:1 5441:1 5990:1 8941:1 8971:1 10632:1 13124:1 14323:1 14886:1 15539:2 19657:2 27162:1 28035:2 31812:1 32957:1 39488:1 42118:1 43231:1 47481:1 58418:1 67741:1 73718:1 82544:1 127299:1 135918:1 135919:1 135920:1 #
-0.00055834350870157944003030481283645 1:1 8:8 10:9 14:8 19:3 20:2 25:2 27:1 40:5 43:3 48:5 54:3 68:7 70:1 75:1 76:1 88:2 101:1 109:3 111:2 115:2 116:1 117:2 123:2 127:1 128:2 131:1 134:1 145:1 148:1 150:2 162:1 227:1 290:1 291:1 294:2 306:2 311:1 312:1 337:1 381:1 403:1 408:1 437:1 442:1 460:3 491:1 497:1 514:1 548:1 554:2 560:1 576:1 601:2 643:1 672:1 711:1 836:1 943:1 964:1 966:1 995:1 1031:1 1033:1 1059:1 1076:1 1133:1 1146:1 1230:1 1241:1 1243:1 1270:1 1286:1 1380:1 1390:1 1406:3 1419:1 1547:1 1555:1 1616:2 1648:1 1797:1 1996:1 2007:1 2056:2 2145:1 2219:1 2264:2 2285:2 2445:1 2557:1 2773:1 2907:3 2938:1 3052:1 3371:1 3455:1 3564:2 3948:2 3994:1 4156:1 5044:1 7024:2 7061:1 8290:1 9492:2 10497:1 11716:1 11865:1 13154:1 13597:1 15098:1 15939:1 17613:1 24182:1 24191:1 26085:2 27144:1 27915:1 28111:1 35942:1 42802:2 53684:1 55184:1 72982:1 80661:1 81133:1 99104:1 #
0.00055834350870157944003030481283645 1:1 8:2 10:8 13:1 14:3 27:1 28:2 31:1 43:1 68:5 75:2 82:1 83:2 107:2 109:2 123:1 131:1 133:1 137:1 150:3 161:2 162:1 167:2 214:1 226:2 242:1 252:1 306:1 336:1 408:1 409:1 411:1 460:1 509:1 572:2 711:1 780:1 849:1 941:1 964:1 966:1 973:1 1034:1 1069:1 1076:1 1289:1 1815:1 2007:2 2037:1 2461:1 3229:2 4241:1 5398:2 5655:1 6161:1 6942:1 10320:1 13389:1 15848:1 21940:2 72604:1 72888:1 72889:1 72890:1 #
-0.00034693972093963898082821795121333 1:1 8:5 10:5 14:8 19:2 20:4 22:1 25:1 28:3 32:1 40:2 43:2 48:1 50:1 54:1 68:1 75:1 82:3 88:1 101:1 111:3 117:3 124:2 126:1 128:1 140:3 150:4 162:1 180:1 204:1 242:7 252:3 306:1 311:1 336:1 337:1 365:1 387:1 403:1 408:2 411:2 431:1 442:1 455:1 460:1 477:1 491:1 497:1 528:1 529:1 533:1 558:1 572:3 643:1 645:1 729:1 898:1 943:1 966:1 998:1 1097:1 1115:1 1179:1 1201:1 1262:1 1282:2 1322:1 1405:1 1648:1 1784:1 1836:1 2007:2 2084:1 2087:1 2172:1 2192:1 2521:1 2810:1 3335:1 3339:1 3699:1 3891:1 4318:3 4323:1 4798:1 5251:1 5320:1 5693:1 5897:1 6132:1 6229:1 6353:2 6702:1 7219:1 9176:1 9485:3 11912:1 17365:1 17742:1 19747:1 32284:1 46206:1 99173:2 99174:1 #
-0.00040047676216454933337957067251978 1:1 6:6 7:4 8:53 9:4 10:22 11:2 12:3 13:3 14:8 15:2 16:2 17:2 18:2 19:6 20:707 21:4 22:4 23:5 24:1 25:7 26:1 27:3 28:18 29:2 30:1 31:2 32:1 33:2 34:4 35:3 36:3 37:2 38:1 39:14 40:4 41:11 42:18 43:3 44:4 45:1 46:1 47:1 48:2 49:7 50:2 51:2 52:2 53:3 54:3 55:5 56:33 57:10 58:17 59:8 60:1 61:7 62:2 63:6 64:3 65:4 66:3 67:2 68:8 69:1 70:7 71:3 72:2 73:2 74:3 75:2 76:1 77:5 78:2 79:1 80:1 81:2 82:2 83:3 84:1 85:1 86:2 87:1 88:2 89:1 90:1 91:1 92:1 93:1 94:1 95:1 96:1 97:1 98:1 99:3 100:2 101:1 102:1 103:1 104:1 105:1 106:1 107:1 108:1 109:1 110:1 111:1 112:1 113:1 114:1 115:1 116:2 117:1 118:1 119:1 120:1 121:1 122:2 123:2 124:1 125:2 126:1 127:1 128:1 129:1 130:1 131:1 132:1 133:1 134:1 135:1 136:1 137:1 138:1 139:1 140:1 141:1 142:1 143:1 144:2 145:1 146:1 147:1 148:2 149:1 150:1 151:1 152:1 153:1 154:1 155:1 156:1 157:1 158:1 159:1 160:1 161:1 162:1 163:1 164:1 165:2 166:1 167:2 168:1 169:1 170:1 171:1 172:254 173:38 174:1 175:1 176:1 177:1 178:1 179:18 180:17 181:1 182:5 183:1 184:1 185:1 186:1 187:1 188:1 189:1 190:1 191:1 192:1 193:1 194:1 195:1 196:1 197:1 198:1 199:1 200:1 201:1 202:1 203:1 204:1 205:1 206:1 #
-0.00055834350870157944003030481283645 1:1 8:9 10:11 14:10 19:3 40:5 48:7 68:6 82:7 88:1 90:3 101:1 115:3 123:1 124:6 128:1 140:3 150:5 164:1 213:1 226:1 227:1 236:1 252:1 286:2 306:2 309:1 357:2 364:1 408:1 409:1 430:1 460:1 469:1 518:1 519:1 531:3 538:1 539:2 544:1 548:4 549:1 558:3 560:1 572:2 573:1 575:1 604:1 614:1 624:1 631:2 656:1 657:1 660:1 715:1 765:1 766:1 770:1 836:1 937:1 974:1 1036:2 1076:1 1133:4 1225:1 1259:1 1352:1 1443:4 1546:2 1551:2 1818:1 2000:1 2084:1 2212:1 2257:1 2386:1 2432:1 2468:1 2559:1 2591:2 2800:1 3162:1 3196:1 3347:1 3850:1 4409:1 4428:1 4552:1 5516:1 5930:1 6436:1 7598:1 9685:1 9756:1 9757:1 9758:1 9759:1 9760:1 #
0.00055834350870157944003030481283645 1:1 20:2 28:1 43:1 118:1 133:1 150:1 252:1 306:1 538:1 572:2 3328:1 3458:1 4321:1 4572:1 5083:1 5164:1 5452:1 5670:1 6625:1 6818:1 7662:1 9656:1 9898:1 11743:1 16375:1 16637:1 18147:1 20149:1 26064:1 26425:1 26466:1 28134:1 40777:1 48536:1 119305:1 119306:1 119307:1 119308:1 119309:1 119310:1 119311:1 119312:1 119313:1 119314:1 119315:1 #
0.00055834350870157944003030481283645 1:1 8:1 10:5 28:5 31:1 43:1 56:4 68:1 82:1 86:1 124:1 140:1 150:1 156:1 164:1 210:1 227:1 228:1 306:1 348:1 516:1 548:1 554:2 572:2 596:1 659:1 660:1 850:1 917:1 964:1 1051:1 1206:1 1216:1 1255:1 1355:1 1380:2 1406:1 2519:1 2520:1 2563:1 2607:1 2884:1 3192:1 3339:1 3631:1 4284:1 6530:1 8044:1 12111:1 14991:1 26518:1 42952:1 43290:1 118927:1 118928:1 #
0.00055834350870157944003030481283645 1:1 25:1 68:1 86:1 99:1 109:1 125:1 572:1 718:1 4356:1 4796:1 6567:1 13371:1 21079:1 34125:1 65204:1 #
-0.00055834350870157944003030481283645 1:1 8:11 10:17 13:1 14:5 19:4 20:8 25:2 28:2 32:1 33:2 40:6 43:4 48:2 56:8 61:1 68:12 75:1 79:1 83:2 88:2 109:1 111:2 115:2 117:2 123:1 124:2 128:2 131:1 140:2 149:1 150:4 157:1 160:3 161:2 162:4 163:3 191:2 210:1 242:1 252:2 294:2 306:2 327:1 332:1 337:1 403:1 408:1 452:1 533:1 536:1 537:1 548:1 558:1 572:7 623:1 636:1 643:1 645:1 656:1 660:1 681:1 687:1 737:1 784:2 787:1 876:2 917:2 938:1 954:1 964:2 974:3 1241:1 1296:1 1367:3 1387:1 1559:1 1593:2 1853:1 1905:1 2145:1 2160:1 2195:2 2226:1 2464:1 2519:2 2524:1 2580:2 2616:1 2626:1 2627:1 2796:1 2810:1 2880:1 3042:1 3095:1 3115:1 3149:1 3192:1 3250:1 3377:1 3487:1 3626:1 3704:1 3901:1 4012:1 4274:1 4285:2 4333:1 4356:1 4363:1 4448:1 4521:1 4612:1 4759:1 4870:2 5027:1 5050:1 5097:1 5222:1 5397:2 5681:1 5752:1 6035:1 6150:1 6790:2 7956:1 8672:4 8680:1 10923:1 10926:1 11259:2 12076:1 12077:1 12078:2 12079:1 12080:1 12081:1 12082:1 12083:2 12084:2 12085:3 12086:3 12087:1 12088:1 12089:2 12090:1 12091:1 12092:1 12093:1 12094:1 12095:1 12096:2 12097:2 12098:2 12099:2 12100:2 12101:1 12102:1 #
-0.00055834350870157944003030481283645 1:1 8:7 10:16 14:17 15:1 19:3 20:4 25:1 28:2 32:1 40:7 43:4 48:4 68:14 70:1 78:1 86:2 88:1 91:1 109:1 111:4 115:5 117:4 118:1 123:4 128:1 133:1 140:2 150:8 160:2 161:2 164:1 167:8 177:1 214:1 226:6 227:2 228:2 236:1 242:1 252:4 255:1 287:1 288:1 292:1 306:5 312:1 334:1 337:1 363:1 403:2 408:4 409:2 413:1 460:1 501:1 509:1 510:4 533:3 558:1 568:1 572:11 576:1 581:1 600:1 614:1 635:1 643:1 682:1 683:1 684:1 687:1 720:1 748:1 753:2 943:1 951:2 955:2 964:1 972:2 974:1 983:2 1047:1 1075:1 1083:1 1133:1 1149:1 1184:1 1201:1 1241:2 1255:1 1317:3 1348:1 1392:1 1530:1 1692:1 1694:2 1886:1 1902:1 2007:7 2048:1 2117:2 2127:1 2131:1 2171:1 2172:1 2218:1 2274:2 2405:1 2429:1 2520:1 2835:3 2937:1 3147:1 3422:1 3482:1 3754:1 3830:1 4402:1 4613:1 4696:3 4976:1 5050:1 5088:2 5248:1 5371:1 5398:1 6161:2 6726:2 6729:7 6732:3 7892:1 8044:1 8084:1 8686:1 9700:1 11444:2 11843:1 14225:1 14375:1 14975:1 16793:1 22269:1 34448:1 50664:1 55831:1 57005:1 57362:1 57363:1 57364:1 57365:1 57366:1 #
0.00055834350870157944003030481283645 1:1 8:2 10:4 14:3 19:2 25:1 40:4 68:3 78:1 81:1 123:1 125:1 131:1 132:1 133:1 150:1 177:1 226:1 242:1 286:1 306:1 310:1 311:1 327:1 364:1 365:1 408:1 442:2 460:3 525:1 537:1 539:1 559:2 568:2 572:1 614:2 628:1 643:1 974:1 1075:1 1080:1 1341:1 1443:1 2601:1 2812:1 2936:1 4798:1 7179:1 8334:1 11782:1 15391:1 17518:1 20527:2 20528:1 21551:1 22209:1 23223:1 24279:1 27165:1 30826:1 #
0.00055834350870157944003030481283645 1:1 8:3 9:1 10:2 13:1 19:1 20:31 25:1 28:1 40:3 43:2 61:1 68:1 83:2 105:1 118:1 123:1 124:3 128:1 137:1 140:1 150:1 160:1 242:1 249:1 327:1 364:1 396:1 497:1 498:1 527:1 539:2 558:2 568:1 632:1 636:1 718:1 876:1 966:2 1082:1 1143:1 1175:1 1179:1 1201:1 1216:1 1255:1 1331:1 1348:1 1387:1 1388:1 1405:1 1406:1 1485:1 1593:34 1840:1 1868:1 2085:1 2145:1 2159:1 2715:1 2781:1 2884:1 3251:1 3340:1 3495:1 3701:1 3754:1 3989:1 4106:1 4156:1 4285:1 4287:1 4359:1 4365:1 4683:1 4739:1 5157:1 5229:1 5444:1 5593:1 5675:1 5788:1 5856:1 5927:1 6155:1 6338:1 6388:1 6624:1 6892:1 7593:1 7838:1 8048:1 9050:1 9364:1 9483:1 9669:1 9798:1 9971:1 10145:1 10175:1 11115:1 12156:1 12938:1 13292:1 13305:1 13486:1 14474:1 14546:1 15670:1 15821:2 17243:1 17419:1 17510:2 17529:1 17544:1 17880:1 18391:1 19240:1 19275:1 19667:1 19669:1 19696:1 20178:1 20413:1 21312:1 21338:1 21358:1 21363:1 21416:1 21431:1 21483:1 21496:1 21574:1 21626:1 21687:1 22303:1 22466:1 22475:1 22985:1 23020:1 23142:1 23235:1 23244:1 23278:1 23332:1 23416:1 23483:1 23659:1 24259:1 24703:1 24741:1 24757:1 24758:1 24878:1 24886:1 24982:1 24984:1 24990:1 25016:1 25590:1 25606:1 25626:1 25708:1 25781:1 26117:1 26198:1 26227:1 26296:1 26342:2 26378:1 26403:1 26778:1 26969:1 27066:1 27101:1 27103:1 27190:1 27197:1 27397:1 27431:1 27509:1 27537:1 27570:1 27711:1 27734:1 27992:1 28042:1 28144:1 28238:1 28262:1 28449:1 28970:1 29308:1 29820:1 29998:1 30065:1 30204:1 30208:1 30213:1 30383:1 30936:1 31106:1 31838:1 31940:1 32139:1 32187:1 32748:1 32753:1 33232:1 33272:1 33316:1 33370:1 33388:1 33389:3 33391:1 33813:1 33820:1 33859:1 34080:1 34482:1 34485:1 34712:1 34736:1 34784:1 34797:1 35357:1 35437:1 36474:1 36556:1 36559:1 36571:1 36922:1 36974:1 37052:1 37230:1 37475:1 37578:1 37645:1 37684:1 37824:1 37845:1 38528:1 38907:1 39044:1 39097:1 39145:1 39976:1 40069:1 40144:1 40155:1 40184:1 40237:1 40265:1 40266:1 41218:1 41776:1 41835:1 42173:1 42331:1 42533:1 42951:1 43181:1 43215:1 43226:1 43373:1 43916:1 45759:1 46002:1 46010:1 46433:1 47098:1 47729:1 48426:1 48516:1 48518:1 48550:1 49073:1 49089:1 49234:1 49339:1 49600:1 49848:1 51827:1 51916:1 52121:1 54039:1 55529:1 59977:1 61094:1 68295:1 69496:1 70031:1 70101:1 71254:1 72392:1 73106:1 73782:1 74764:1 77077:1 79222:1 79351:1 79966:1 80664:1 82626:1 83793:1 86550:1 87889:1 89374:2 89396:1 89440:1 89477:1 89855:1 90093:1 90802:1 91268:1 91694:1 92044:1 92132:1 94068:1 101094:1 101243:1 101341:1 101373:1 101509:1 101526:1 101620:1 102418:1 102729:1 102880:1 103176:1 104096:1 104765:1 105280:1 106026:1 106073:1 106084:1 109248:1 112144:1 116242:1 116243:1 116244:1 116589:1 116590:1 116591:1 116592:1 116593:1 116594:1 116595:1 #
-0.00055834350870157944003030481283645 1:1 10:3 14:2 20:4 29:1 43:1 48:2 82:1 83:1 107:1 137:1 150:1 151:1 209:1 226:1 254:1 285:1 306:1 403:1 604:2 643:1 738:1 874:1 4393:1 4532:2 6122:3 7903:1 9327:1 16732:1 128117:3 #
-0.00055834350870157944003030481283645 1:1 8:1 10:3 14:1 43:1 54:1 68:3 75:1 123:1 128:1 133:1 140:1 150:1 226:1 287:1 408:1 460:1 490:1 491:1 558:1 570:3 572:1 576:2 658:1 677:1 766:1 893:1 937:1 1367:1 1537:1 1646:1 1797:1 1811:1 2408:1 2427:1 2559:2 4505:1 4768:1 4776:1 7536:1 7711:1 8072:1 #
0.00038480816095605397883505638390034 1:1 8:10 10:18 14:5 15:3 20:18 21:2 22:1 27:1 28:13 40:2 43:6 48:1 56:27 68:2 70:13 71:4 80:13 88:1 111:9 117:9 128:1 148:1 150:3 160:2 161:3 167:1 218:1 255:1 287:3 332:1 363:1 364:1 408:1 428:1 437:3 466:1 500:4 539:3 547:1 572:1 619:1 687:1 724:26 730:1 769:1 770:1 872:1 910:2 924:1 960:1 983:1 991:1 1064:6 1406:1 1412:1 1593:1 1857:16 1903:2 2160:1 2268:1 2519:3 2520:3 2634:2 2656:2 3281:1 3347:1 3348:3 3482:1 3485:2 3614:2 3635:1 3672:1 3721:1 3723:1 3807:1 3850:1 4292:1 4710:12 5303:1 6763:1 7679:1 7746:2 8817:1 9113:1 9175:13 9777:1 10381:1 11363:1 11379:3 11672:1 12317:1 12638:1 13316:1 13464:13 13851:2 13976:2 14383:1 14386:1 14538:3 14696:1 15283:2 15493:1 15585:1 17078:1 20925:1 21012:1 22478:6 25275:1 25582:1 26325:2 26636:2 26874:1 27690:2 31612:1 36495:1 37006:2 37649:1 38752:1 43360:1 45813:1 47245:10 47488:3 48877:1 50502:1 52318:1 55358:1 58972:2 60114:1 66199:1 81293:1 110204:1 110205:12 110206:1 110207:1 110208:1 110209:1 110210:1 110211:1 110212:1 110213:1 110214:1 110215:1 110216:1 110217:1 110218:1 110219:1 110220:1 110221:2 110222:1 110223:1 110224:1 110225:1 110226:1 #
0.00055834350870157944003030481283645 1:1 8:3 10:7 14:5 18:1 19:6 20:26 21:1 22:16 23:4 25:1 28:60 30:1 40:2 41:13 48:1 50:1 51:2 56:23 59:1 68:6 82:1 83:1 88:1 109:1 124:1 125:1 138:1 140:2 149:1 150:4 160:17 162:1 163:1 166:1 182:12 191:2 193:1 226:1 227:1 228:1 252:1 254:8 287:1 306:1 364:1 403:2 409:1 460:1 517:1 525:1 539:4 541:1 558:1 568:1 570:1 662:7 687:4 711:1 718:2 726:2 877:1 887:1 910:1 917:24 964:1 1008:1 1083:1 1142:1 1154:8 1225:1 1307:3 1309:1 1312:59 1500:2 1593:16 1650:2 1662:1 1669:2 1688:1 1821:1 2080:6 2112:1 2172:1 2519:2 2520:2 2591:1 2631:1 2738:1 2817:1 3040:1 3078:1 3320:2 3436:5 3829:1 4167:1 4285:1 4330:1 4335:3 4356:1 4394:1 4626:2 4813:1 4921:15 4928:7 5007:1 5027:2 5259:4 5378:1 5662:1 5843:1 5966:1 6103:8 6161:4 6294:1 6735:2 7126:1 7146:1 7290:1 7416:2 7577:1 7701:1 7735:1 8887:5 9327:1 9964:1 10701:1 10931:1 11207:3 13796:6 15858:1 16190:1 17484:2 17566:2 17567:1 17670:7 19657:1 19669:1 19811:1 20532:1 20802:2 20837:18 20844:3 20852:37 20861:2 20870:1 20889:1 24588:4 24610:1 24648:1 24664:1 25219:1 25220:7 26324:1 29066:1 29866:3 30291:1 33389:4 35374:1 37155:1 39581:1 40450:1 41032:1 41260:1 41417:1 41454:1 41472:1 41538:1 42170:2 42173:2 42830:1 42831:1 43136:1 45018:1 45365:1 45435:1 46636:1 46644:1 46645:1 46716:2 47117:1 47667:1 47907:2 55348:2 60577:1 71105:1 84228:1 84723:2 87856:4 118567:1 119183:1 124458:1 124459:1 124460:1 124461:1 124462:1 124463:1 124464:1 124465:1 124466:1 124467:1 124468:1 #
0.00055834350870157944003030481283645 1:1 116:2 539:1 587:1 917:1 13651:1 23640:1 118477:1 118478:1 118479:1 #
-0.00055834350870157944003030481283645 1:1 13:1 14:7 20:1 25:1 26:2 27:1 33:1 40:2 43:1 48:5 56:2 59:1 63:2 68:3 82:2 83:1 111:1 115:1 117:1 123:1 124:1 128:2 131:1 137:1 140:2 162:2 171:1 177:1 191:1 198:1 226:1 241:1 252:2 254:1 292:2 306:1 337:2 367:1 409:1 460:2 560:1 572:2 576:1 715:1 751:5 757:1 760:1 783:1 1035:1 1094:1 1155:1 1268:1 1317:2 1341:1 1570:1 1905:1 2044:1 2217:1 2444:1 2456:1 2507:1 2785:1 2787:1 2830:1 3243:2 3571:1 4106:1 4311:1 4558:1 5417:1 5636:1 8047:1 8468:1 8681:1 10020:1 #
0.00055834350870157944003030481283645 1:1 8:22 10:26 13:4 14:36 19:12 25:6 27:2 28:2 40:22 48:24 54:2 68:4 80:2 82:2 94:2 109:2 115:8 117:2 123:4 128:6 133:2 137:2 140:10 162:2 167:30 177:2 182:2 216:2 226:4 227:4 251:2 252:4 254:2 285:2 286:4 306:10 309:2 327:2 334:2 365:2 450:2 460:2 480:2 497:6 508:4 558:6 560:4 571:2 614:6 628:2 643:2 655:2 680:1 715:2 1022:2 1076:4 1143:1 1162:4 1186:2 1259:2 1350:2 1384:2 1407:2 1431:2 1609:2 1662:2 1878:2 2392:2 2589:4 2592:2 2614:2 2616:2 2679:2 2689:2 2690:3 2741:2 2756:1 2765:2 2788:2 2795:2 4268:2 4423:2 4579:2 4765:4 4898:2 4969:2 5109:4 5154:2 5155:2 5156:2 5479:2 5930:2 6819:4 6851:2 6896:4 7081:2 7694:2 7842:6 7892:2 9344:2 9883:2 10022:2 10227:2 10620:2 11390:2 13523:2 14027:2 14412:2 15821:6 16207:2 17583:2 19618:2 20703:2 20875:2 22466:2 23610:4 27034:2 27970:6 27971:6 27972:10 27973:2 27974:4 27975:2 27976:2 27977:2 27978:2 27979:2 27980:2 27981:2 27982:2 27983:2 27984:2 27985:4 27986:4 27987:2 27988:2 27989:2 27990:2 27991:2 27992:2 27993:2 27994:2 27995:2 27996:2 27997:2 27998:2 27999:2 28000:2 28001:2 28002:2 28003:2 28004:2 28005:2 #
-0.00055834350870157944003030481283645 1:1 8:3 10:3 14:1 19:3 25:1 28:1 40:3 48:1 68:2 82:4 88:1 101:1 115:2 116:2 128:2 131:1 150:1 162:1 226:1 232:1 306:1 309:1 452:1 519:1 523:1 548:1 572:1 604:3 702:1 704:1 750:1 865:1 998:1 1036:1 1133:2 1169:1 1186:1 1259:2 1341:1 1405:1 1797:1 2001:1 2117:1 2408:1 2417:1 2563:1 2591:1 2849:1 3317:1 3401:1 3529:1 3548:1 4401:1 8258:1 8629:1 9064:1 14975:1 50664:1 62457:1 #
-0.00055834350870157944003030481283645 1:1 8:2 10:1 13:1 14:3 20:4 25:2 43:2 63:1 68:1 82:1 123:1 212:1 361:1 362:1 498:1 548:1 762:2 763:2 975:1 1033:1 1476:1 1548:1 1875:1 3277:2 10498:1 11682:1 11685:1 #
-0.00055834350870157944003030481283645 1:1 10:6 14:2 19:1 20:5 28:1 40:2 43:2 44:1 68:2 82:1 83:2 111:1 117:1 128:1 131:1 137:2 140:1 150:2 164:1 167:2 169:1 226:2 294:1 498:1 529:1 539:5 548:1 623:2 718:1 757:2 838:1 973:1 975:1 1186:1 1407:1 1646:1 1797:1 2408:1 2617:1 4401:1 5204:1 9627:1 9633:1 9668:1 12541:1 15547:1 19226:1 36651:2 47710:1 #
-0.00055834350870157944003030481283645 1:1 8:16 10:8 14:4 19:5 20:1 25:1 28:1 32:2 40:4 43:2 48:3 56:1 63:2 68:4 82:10 83:1 88:1 93:1 94:4 101:1 115:3 123:1 128:4 149:1 150:3 227:1 228:3 236:1 242:5 302:1 306:1 321:1 364:1 408:1 430:1 498:1 533:2 540:1 541:1 572:1 576:1 614:1 652:1 660:1 679:1 715:1 738:1 766:1 966:2 981:1 998:1 1022:1 1039:3 1074:1 1116:1 1227:1 1270:1 1311:1 1355:1 1379:1 1407:1 1551:1 1649:1 1997:1 2087:1 2196:1 2218:1 2418:1 2441:1 2662:1 2747:1 2774:1 2795:1 2845:1 2943:1 3000:2 3045:1 3147:1 3396:1 3763:1 3919:1 3985:1 4028:1 4317:1 4410:1 4430:1 5185:1 5852:1 7061:1 7587:1 7819:1 8174:1 8540:1 8923:1 9252:1 10508:1 11866:3 12534:1 13840:1 14042:1 14546:2 15332:1 22047:2 22280:1 22508:1 23227:1 26911:1 37228:1 50664:1 51144:1 54365:1 #
0.00055834350870157944003030481283645 1:1 8:4 10:3 14:1 19:3 28:1 40:3 163:1 252:1 287:1 306:3 660:1 1076:1 1283:1 1381:1 1775:1 1779:1 1902:1 3345:1 4863:1 6267:1 7104:1 7607:1 16609:1 19162:1 22395:1 23015:1 23150:1 23266:1 23603:1 29897:1 32052:1 34077:1 37343:1 37555:1 39119:1 39311:1 45480:1 47434:1 56622:1 70101:1 70587:1 77400:1 88909:1 103163:1 104112:1 111136:1 135311:1 #
0.00055834350870157944003030481283645 1:1 8:8 10:9 14:10 20:4 23:1 25:3 27:2 40:2 43:4 47:1 48:1 51:1 54:1 68:7 75:1 78:1 109:1 115:2 123:2 124:1 128:3 131:1 133:1 140:1 170:1 200:1 226:1 227:1 285:1 287:1 306:1 437:1 460:1 487:2 523:1 527:1 531:1 537:1 548:1 571:2 627:1 655:1 660:1 718:1 766:1 781:1 787:1 898:1 941:1 966:1 1021:1 1031:1 1142:1 1242:1 1254:2 1260:1 1547:1 1591:1 1648:1 1650:1 1688:1 1811:1 2145:2 2195:1 2326:1 2392:1 2441:1 2513:3 2556:2 2561:1 2618:1 2755:1 3095:3 3167:1 3323:2 3343:1 3397:1 3530:1 3585:1 3627:1 3646:1 3712:1 3809:2 3843:2 3990:1 4285:1 4303:1 4354:1 4359:1 4836:1 4975:1 4980:1 5004:1 5123:1 5243:2 5378:1 5402:1 5436:2 5622:1 6123:1 7933:1 9000:1 9744:3 10575:1 11363:1 11412:1 12481:2 12569:1 12982:1 14135:1 28123:1 28727:3 29090:1 30373:1 36773:1 38009:1 122707:1 122708:1 122709:1 122710:1 122711:1 #
-0.00055834350870157944003030481283645 1:1 8:29 10:32 13:3 14:8 15:1 19:18 20:5 25:2 27:3 31:2 40:5 43:3 48:3 54:1 63:1 68:4 81:2 82:10 83:32 88:2 92:3 94:5 115:6 116:1 123:3 124:3 128:6 131:1 133:2 137:10 140:1 150:15 167:6 210:6 218:1 226:1 231:1 232:3 236:1 242:2 285:1 287:1 294:1 306:4 311:2 321:1 337:1 364:1 365:3 409:1 460:5 497:3 514:1 525:10 531:2 533:1 539:6 541:4 558:3 568:1 575:1 660:2 713:1 715:2 787:1 819:1 853:2 886:1 966:2 974:1 999:1 1022:3 1033:1 1048:1 1051:3 1162:1 1179:4 1189:1 1225:1 1227:1 1255:1 1259:1 1268:1 1270:2 1309:1 1312:3 1323:1 1367:2 1404:2 1573:1 1583:1 1585:1 1641:1 1649:1 1665:1 1901:1 2028:2 2130:1 2201:2 2212:1 2274:2 2323:2 2326:2 2507:1 2511:5 2584:1 2601:1 2617:1 2621:1 2697:1 2727:1 2760:3 2762:1 2776:1 2796:3 2801:1 2936:2 3167:1 3195:1 3240:1 3398:3 3442:1 4274:1 4302:1 4329:1 4722:1 4741:2 4742:1 4808:1 4809:1 4810:2 4811:1 4812:1 4813:1 4814:1 4815:1 4816:2 4817:7 4818:1 4819:1 4820:1 4821:1 4822:1 4823:1 4824:1 4825:2 4826:1 4827:1 4828:1 4829:1 4830:1 4831:1 4832:1 4833:1 4834:1 4835:1 4836:1 4837:1 4838:1 4839:1 4840:1 4841:1 4842:1 4843:1 4844:1 4845:1 4846:1 4847:1 4848:1 4849:1 4850:1 4851:1 4852:1 4853:1 4854:1 4855:1 4856:1 4857:1 4858:1 4859:1 4860:1 4861:1 4862:1 4863:1 4864:1 4865:1 4866:1 4867:1 4868:1 4869:1 4870:1 4871:1 4872:1 4873:1 4874:1 4875:1 4876:1 4877:1 4878:1 4879:1 4880:1 4881:1 4882:3 4883:1 4884:2 4885:1 4886:1 4887:1 4888:1 4889:1 4890:1 4891:1 4892:3 4893:1 4894:1 4895:1 4896:1 4897:1 4898:1 4899:1 4900:1 4901:1 4902:1 4903:1 4904:1 4905:1 #
0.00055834350870157944003030481283645 1:1 2:1 10:3 13:1 14:2 19:1 20:1 25:1 27:1 28:1 48:2 56:5 68:2 74:1 75:1 78:1 81:2 83:4 88:3 92:3 111:11 115:1 116:1 117:11 123:1 128:3 137:4 150:5 162:1 167:2 226:2 227:1 259:1 333:1 336:1 532:1 533:3 539:1 563:1 601:2 639:1 682:3 687:1 690:3 770:1 775:1 788:1 943:1 945:1 964:1 1008:1 1076:1 1259:1 1268:1 1648:1 1665:1 2061:1 2175:1 2323:1 2519:1 2587:1 2835:1 3479:1 3626:1 3888:1 3991:4 4569:1 4612:1 4810:1 5249:1 5310:1 5337:1 5928:1 6738:2 6739:1 7119:2 7862:1 8030:1 8544:1 9621:1 10408:1 10877:1 11503:1 12607:1 12844:1 14845:1 17221:1 21921:1 26234:1 40914:1 42560:1 43840:1 46282:1 52893:1 64133:1 64134:1 65694:1 65695:1 #
-0.00055834350870157944003030481283645 1:1 7:1 8:10 10:11 14:4 19:2 20:3 22:1 25:1 27:4 28:9 29:2 30:2 31:2 39:1 40:6 43:1 48:1 54:1 56:5 68:5 81:1 83:4 88:1 109:1 111:2 117:2 123:1 128:8 129:1 133:1 137:3 140:1 145:2 148:1 150:4 151:1 161:1 162:3 177:1 182:1 191:1 226:2 254:1 263:1 272:1 292:1 293:1 297:1 306:1 365:1 381:1 403:1 407:1 460:3 480:1 517:1 519:2 537:1 539:5 540:1 541:1 546:1 547:1 558:1 563:1 572:3 605:1 643:1 646:1 673:1 682:1 736:1 738:1 751:2 787:4 876:2 1034:204 1035:1 1049:1 1051:1 1117:1 1201:1 1312:1 1348:1 1355:2 1380:1 1406:1 1542:1 1619:1 1649:1 1772:2 1878:1 2023:1 2028:1 2202:1 2325:1 2364:2 2585:1 2629:2 2756:1 3018:1 3034:1 3044:1 3097:2 3243:2 3501:3 3510:1 3703:1 3876:1 3917:1 3947:1 3957:2 4226:1 4301:2 5088:1 5400:1 5436:1 5530:1 5597:1 6066:1 6075:1 7234:1 7486:1 7531:1 8221:1 8794:1 8827:1 9220:1 10302:1 10360:1 11150:1 12840:1 12987:1 15687:4 15688:4 15689:3 15690:1 15691:1 15692:1 15693:1 15694:1 15695:1 15696:1 15697:1 15698:1 15699:1 15700:1 15701:2 15702:1 15703:1 15704:1 15705:1 #
-0.00055834350870157944003030481283645 1:1 8:5 10:5 14:8 20:6 23:1 27:1 28:3 39:1 40:1 43:1 47:1 50:1 51:2 59:2 68:1 75:1 82:6 83:1 86:1 88:3 109:1 111:1 115:1 117:1 118:1 123:1 124:3 127:1 128:1 133:3 140:1 151:1 169:1 214:1 226:2 242:1 252:1 290:1 306:1 332:1 337:1 497:1 533:1 539:1 540:1 541:1 548:1 622:1 624:3 672:1 966:1 974:1 991:4 1022:1 1036:2 1133:1 1253:1 1327:1 1405:1 1412:2 1424:1 1570:1 1579:1 1648:1 1797:2 1886:1 2057:1 2230:1 2603:1 2730:3 2762:1 2822:1 2909:1 3188:1 3449:1 3769:1 3921:2 3995:1 3999:3 4261:1 4593:1 4777:2 5050:1 6025:1 9748:1 11855:1 19983:1 50716:1 50976:1 50977:1 51926:1 53518:1 53519:1 53523:1 53533:1 #
0.00055834350870157944003030481283645 1:1 8:10 10:26 13:2 14:39 19:7 20:6 25:3 27:1 28:2 31:1 32:3 40:14 41:1 42:2 43:14 47:1 48:16 54:1 63:2 68:38 70:1 75:3 76:1 82:29 83:4 87:1 88:7 94:12 99:1 109:6 111:3 115:2 117:3 118:1 123:7 124:6 126:1 127:1 128:10 131:3 133:5 137:2 149:2 150:12 151:1 155:1 161:4 162:1 164:1 191:1 211:1 214:1 226:4 227:1 228:2 231:2 232:9 242:6 252:5 270:2 272:1 285:1 286:4 292:2 296:1 306:6 308:1 309:1 332:1 337:1 357:6 364:2 365:1 403:2 408:1 409:3 437:5 450:3 460:11 491:1 497:6 501:1 517:1 519:1 523:1 548:4 568:2 572:4 575:1 627:1 632:1 646:1 647:2 648:1 654:1 656:2 658:4 660:4 715:4 729:1 751:1 766:1 780:1 781:1 787:1 788:2 804:1 836:2 876:1 887:1 938:1 981:5 1012:1 1053:1 1074:1 1076:1 1089:1 1093:1 1133:1 1165:1 1200:1 1230:1 1268:1 1307:1 1352:2 1355:2 1367:3 1394:5 1452:1 1538:1 1540:1 1547:1 1551:1 1557:1 1572:2 1579:1 1583:2 1609:1 1619:2 1626:1 1648:6 1658:2 1692:1 1811:1 1821:1 1826:1 1905:1 2023:1 2037:5 2060:2 2085:1 2105:1 2117:1 2139:1 2195:1 2236:2 2264:2 2267:1 2268:2 2272:2 2274:1 2287:3 2473:1 2482:1 2518:2 2528:1 2568:1 2580:1 2581:1 2584:1 2614:3 2617:2 2729:1 2753:1 2773:8 2778:2 2785:1 2810:1 2880:1 2886:1 2981:2 3126:2 3339:1 3366:1 3402:2 3446:1 3487:4 3492:1 3495:1 3830:1 3951:1 3952:1 3985:2 4008:1 4237:1 4246:1 4311:1 4332:1 4339:1 4473:2 4579:1 4759:1 4777:1 4815:1 4968:1 4988:1 5027:5 5029:5 5071:1 5097:2 5134:1 5488:1 5682:1 5965:1 6004:1 6023:1 6153:1 6187:1 6267:1 6308:1 6394:1 6415:1 6444:1 6504:2 6958:6 7536:1 7579:3 7836:2 7862:2 8505:4 8544:3 8793:1 8821:1 8887:1 9175:1 9452:1 9499:1 9754:1 10316:1 10559:1 11179:1 11432:1 11763:1 12048:1 12288:1 12464:1 12534:2 13070:2 13199:2 13725:2 14605:1 14656:1 14767:1 15755:1 17179:1 17625:1 17644:1 19340:1 19344:1 19525:1 22262:1 22303:1 23159:1 25517:1 25528:1 27751:6 28111:1 28956:4 28962:1 28967:2 30971:2 33031:1 33617:1 37142:5 43657:1 77763:1 93958:1 106735:1 106736:1 106737:1 106738:2 106739:1 106740:1 106741:1 #
0.00055834350870157944003030481283645 1:1 8:17 10:28 13:1 14:13 19:8 20:1 25:2 27:1 28:1 32:3 40:11 43:5 47:1 48:9 56:2 63:1 68:24 70:1 75:2 76:1 78:2 80:1 82:29 88:4 92:1 94:15 109:4 111:2 115:7 116:2 117:2 118:5 123:5 128:5 131:5 137:1 149:1 150:5 155:1 159:2 160:2 161:1 162:1 164:1 172:2 213:1 226:6 227:3 228:1 232:6 242:12 252:5 285:2 286:3 287:1 292:1 299:2 306:3 309:2 311:1 327:1 364:2 365:1 403:1 407:1 409:5 460:3 461:1 497:1 518:1 547:2 558:3 568:4 574:1 575:1 601:2 606:2 623:2 624:1 646:2 654:2 655:1 656:3 660:2 672:1 677:1 715:2 724:2 766:1 778:1 780:1 787:1 937:1 959:1 960:1 964:1 966:1 974:1 1021:1 1022:1 1034:1 1076:3 1133:1 1142:1 1179:2 1225:1 1230:1 1259:2 1268:1 1270:2 1307:1 1355:1 1368:1 1387:1 1407:1 1552:1 1609:1 1611:2 1645:1 1649:1 1832:1 1843:1 1948:1 1996:1 2105:1 2131:2 2147:1 2207:1 2264:1 2267:2 2285:1 2286:1 2435:1 2518:2 2581:1 2584:1 2652:2 2729:1 2734:1 2738:2 2746:1 2753:2 2765:2 2773:5 2795:1 2796:3 2814:1 3017:1 3032:1 3117:1 3177:1 3896:1 3952:1 3978:1 3994:1 4003:1 4033:1 4317:1 4328:1 4339:1 4391:1 4521:3 4777:1 4988:2 5012:2 5027:3 5067:3 5097:1 5319:1 5556:1 5595:1 5685:1 5716:1 6204:4 6567:1 7947:1 7973:4 8642:1 8757:1 8819:1 8890:1 9156:1 9515:1 9987:1 10430:1 10723:1 11684:1 12132:2 12135:1 12423:1 12535:1 13109:1 13647:1 13980:1 14533:1 14767:1 16012:1 17077:1 17582:2 22238:1 22540:1 22549:1 23492:1 29307:1 30377:1 30969:1 31129:1 33359:1 39017:1 41123:1 43972:1 45170:1 48325:1 50225:1 54375:3 58913:1 59000:1 59001:1 60369:1 60981:1 64136:1 69378:1 69379:1 70029:1 71552:1 71968:3 71969:1 #
0.00055834350870157944003030481283645 1:1 5:1 8:6 10:13 13:1 14:2 19:4 25:1 27:1 31:1 32:2 40:4 43:1 48:2 63:5 68:4 82:15 83:2 88:2 94:3 99:1 118:1 123:2 128:2 131:1 133:2 150:2 226:1 242:1 252:1 286:1 287:1 292:1 306:2 308:1 333:2 337:1 408:1 411:1 437:1 460:3 468:1 501:2 508:1 519:1 531:1 539:1 568:1 572:1 613:1 628:1 656:1 658:1 660:1 680:1 981:1 1034:1 1048:1 1176:1 1312:1 1379:1 1394:1 1395:1 1404:2 1547:1 1648:1 1676:1 2160:1 2323:1 2435:1 2557:1 2561:1 2734:1 2796:2 2909:1 2981:1 3280:1 3401:1 3810:1 4077:1 4339:1 4550:1 4939:1 4988:1 5593:1 6066:1 6656:1 6702:1 7179:1 7272:1 7607:1 8031:1 8899:1 9837:1 10075:1 11053:1 18045:1 20462:2 31032:1 39233:2 #
-0.00055834350870157944003030481283645 1:1 8:25 10:27 14:18 15:4 19:2 20:8 21:2 23:4 25:1 27:3 28:4 32:1 34:1 40:7 43:5 47:1 48:12 50:1 51:5 68:14 81:1 82:10 83:7 84:1 86:3 90:1 92:1 93:1 109:3 111:4 115:3 117:13 123:3 124:2 128:1 131:2 133:6 137:5 140:4 149:1 150:13 160:2 162:3 177:3 191:1 226:3 231:1 232:1 242:4 252:2 254:1 270:2 281:1 290:1 291:4 292:2 293:1 294:1 306:4 311:5 327:1 332:1 336:1 337:1 363:1 364:2 377:1 403:4 408:4 409:4 424:1 452:1 460:3 491:1 497:1 498:1 501:1 517:3 518:1 523:1 525:1 533:2 539:10 540:1 541:1 551:1 558:3 560:1 568:1 572:9 575:1 604:1 618:1 622:3 627:1 638:1 639:2 643:1 652:2 653:1 654:1 668:1 674:1 687:6 718:3 720:2 742:1 766:2 876:10 893:1 920:1 930:1 937:1 954:2 974:2 1021:1 1036:1 1097:1 1133:1 1154:1 1164:1 1179:4 1186:1 1219:1 1242:1 1260:1 1270:4 1296:1 1325:1 1406:1 1407:1 1428:1 1429:1 1443:1 1537:1 1547:1 1694:3 1728:1 1746:1 1813:2 1821:1 1902:1 2031:1 2093:1 2302:2 2313:4 2444:1 2477:1 2491:1 2509:1 2561:1 2576:1 2578:2 2692:5 2774:1 2917:1 2949:1 3012:1 3093:1 3178:6 3284:1 3325:1 3348:5 3399:1 3452:2 3504:2 3554:6 3753:2 3779:2 3893:8 3972:1 4041:1 4284:1 4303:1 4342:1 4404:1 4488:3 4498:3 4558:1 4762:1 4767:1 4768:2 5154:1 5155:1 5452:2 5510:1 5511:3 5990:1 6489:1 6627:1 6644:1 8026:4 8890:1 8959:1 9621:1 10530:1 11683:1 11734:1 11858:1 11877:1 11890:1 11891:1 11892:1 11893:1 11894:1 11895:1 11896:1 11897:2 11898:1 11899:2 11900:1 11901:1 11902:1 11903:1 #
0.00055834350870157944003030481283645 1:1 8:1 20:5 32:1 51:1 82:1 88:1 150:1 218:1 252:1 306:1 460:2 541:1 718:2 785:1 983:2 2319:1 2671:1 20413:1 42683:1 #
-0.00055834350870157944003030481283645 1:1 10:9 14:7 19:8 20:1 25:1 28:1 40:2 43:1 48:2 54:1 56:4 68:13 76:2 78:1 82:13 83:9 88:2 92:2 94:3 96:1 109:2 123:7 128:2 131:5 137:3 150:7 152:1 160:1 162:1 169:1 177:1 210:1 213:1 232:1 233:1 242:4 285:2 286:3 287:1 297:1 306:1 311:2 336:1 363:1 365:1 408:1 409:1 452:1 460:4 490:1 491:2 508:1 517:1 525:2 533:1 537:1 539:10 541:3 558:1 572:1 639:1 646:1 668:1 718:1 748:1 767:1 780:1 836:1 887:1 898:1 942:2 964:1 973:1 974:2 975:1 995:1 1036:1 1074:1 1088:1 1116:2 1171:1 1254:2 1270:1 1317:1 1367:1 1394:1 1407:1 1530:3 1570:1 1623:2 1641:1 1902:1 2001:1 2031:1 2079:1 2082:1 2172:1 2196:1 2247:1 2264:1 2273:1 2435:1 2519:1 2520:1 2547:2 2623:1 2713:1 2830:2 3175:1 3326:1 3492:1 3495:2 3501:1 3699:1 4897:1 5012:1 5222:1 5593:1 7675:1 7695:1 8757:1 9320:1 10056:1 13324:1 15476:1 23003:1 57194:1 82305:1 84124:1 84858:1 98475:1 98476:1 98730:1 98731:1 #
0.0003801551487667685115534599304965 1:1 8:39 9:1 10:57 13:7 14:38 19:9 20:9 21:6 23:6 25:3 27:4 28:10 32:3 37:1 40:22 43:1 48:24 51:2 54:5 68:27 75:2 78:1 80:1 81:1 83:2 84:1 88:3 93:2 104:1 109:8 111:4 115:8 117:5 123:9 124:9 127:1 128:22 131:2 133:1 137:2 140:9 150:1 154:1 157:1 162:11 167:45 177:3 191:1 211:1 224:2 226:15 227:3 228:2 242:2 252:4 263:1 285:2 286:2 290:1 294:2 298:1 302:2 306:8 311:1 331:3 336:1 369:3 403:3 415:1 424:2 437:1 442:2 450:1 460:5 491:1 495:2 497:1 498:2 501:3 508:1 509:2 516:1 523:2 547:3 548:3 558:3 567:1 576:7 601:4 607:1 613:1 622:5 625:1 635:7 643:4 656:2 658:2 660:1 672:1 673:1 694:1 704:2 713:1 715:3 748:1 753:1 763:6 780:4 781:2 783:1 785:4 835:1 836:2 873:1 876:9 886:1 910:7 917:2 954:1 960:1 974:1 989:1 991:1 1014:2 1047:2 1049:1 1074:1 1075:2 1094:1 1133:2 1148:1 1154:2 1162:2 1186:1 1215:2 1228:1 1235:2 1245:2 1268:8 1289:1 1311:1 1312:1 1327:2 1350:2 1355:9 1367:4 1406:3 1412:1 1539:1 1545:1 1583:1 1585:3 1609:1 1613:1 1641:1 1665:2 1728:2 1747:1 1794:1 1797:7 1808:1 1815:4 1838:1 1847:2 1864:1 2030:1 2080:1 2084:2 2096:1 2118:1 2160:7 2172:1 2175:1 2197:2 2209:1 2217:1 2224:1 2252:1 2257:1 2264:1 2296:1 2318:1 2320:2 2361:1 2436:1 2440:1 2448:1 2468:1 2509:1 2518:2 2528:1 2563:2 2591:1 2602:1 2619:1 2679:2 2707:6 2842:1 2869:1 2942:1 2957:1 2993:2 3016:1 3018:2 3055:1 3102:2 3103:6 3105:3 3164:1 3194:1 3199:5 3316:1 3319:1 3347:2 3408:2 3435:1 3442:2 3447:1 3455:1 3458:1 3485:2 3486:1 3492:2 3523:2 3528:2 3549:1 3559:1 3563:1 3653:1 3672:1 3720:3 3797:1 3812:1 3829:1 3850:1 3870:1 3877:1 3891:4 3910:1 3919:1 3945:2 3983:2 3990:2 4032:1 4047:1 4246:1 4261:2 4341:1 4365:4 4377:1 4388:1 4405:3 4411:1 4434:3 4462:1 4467:1 4471:1 4480:1 4552:1 4553:1 4634:1 4668:1 4688:1 4792:1 4798:1 4912:1 4937:1 4938:3 4952:4 5044:3 5123:1 5133:1 5161:1 5263:5 5290:3 5312:1 5390:1 5441:1 5497:1 5506:1 5525:15 5581:1 5661:1 5829:3 6004:1 6148:1 6187:1 6215:1 6243:1 6248:1 6267:2 6299:1 6398:1 6567:1 6626:1 6897:1 6912:1 6923:5 7117:2 7583:1 7739:1 7767:1 7772:2 7988:1 8086:1 8087:1 8693:1 8757:1 8809:2 8922:1 9125:1 9644:1 9877:1 9908:1 10326:1 10421:1 10503:1 10598:1 11675:2 11754:1 12052:4 12058:1 12059:1 12929:1 13200:1 13572:1 14295:1 14378:1 15396:2 15405:1 15552:2 16227:1 16793:1 16926:1 16998:1 17078:1 17411:2 19269:1 19605:2 19933:1 20343:1 20344:1 20345:1 20347:1 20349:2 20350:2 21229:1 22249:1 24180:1 24181:1 24183:1 24185:2 25359:1 27978:1 28011:2 28050:1 28184:1 28713:2 28730:1 28830:1 29308:2 34108:6 41184:1 43982:1 54638:1 64131:2 76815:1 84045:1 94423:1 126330:1 126331:1 132843:4 132844:1 132845:1 132846:1 #
0.00055834350870157944003030481283645 1:1 8:10 10:14 13:3 14:7 19:1 20:13 25:2 28:1 40:5 43:3 48:2 54:1 56:9 65:1 68:9 75:4 83:6 86:1 109:1 111:13 115:1 117:13 124:2 133:1 137:2 140:2 148:3 150:3 159:3 160:5 161:5 162:2 167:16 192:1 213:1 226:1 252:1 287:1 289:1 292:2 306:7 327:1 365:1 408:1 437:2 501:4 531:1 539:1 540:1 541:2 548:1 558:2 563:5 568:1 572:6 576:2 626:1 628:1 636:1 687:1 724:9 769:2 770:1 954:1 1089:1 1093:1 1146:1 1156:1 1179:1 1241:1 1317:2 1355:1 1405:1 1444:1 1530:1 1585:1 1619:1 1648:1 1665:1 1832:1 1839:1 2131:2 2195:1 2227:1 2306:1 2400:1 2513:2 2524:2 2584:1 2634:1 2636:2 2668:2 2849:1 3095:1 3233:1 3672:2 3808:1 3833:1 3850:1 4082:2 4246:1 4317:1 4321:1 4629:1 4796:1 4882:1 4921:1 4991:1 5161:1 5217:2 5452:2 6957:1 7136:2 7600:1 7873:2 8228:1 8682:1 9467:2 10020:2 11363:1 12132:2 12861:1 13851:1 14524:1 14657:3 15990:2 16961:1 19671:1 20925:1 22548:1 23525:1 24456:1 24726:1 27690:1 29220:1 30124:1 30217:1 31548:1 31975:1 32170:1 34695:2 38722:1 40945:2 44096:1 49866:3 50545:1 55316:1 60167:1 64172:1 67623:1 68991:1 82419:2 89275:1 101992:1 102490:3 109116:1 133197:2 133198:1 133199:1 133200:1 133201:1 133202:1 133203:1 133204:1 133205:1 133206:1 133207:1 133208:1 133209:1 133210:1 #
0.00055834350870157944003030481283645 1:1 8:4 10:11 20:76 22:1 28:2 70:4 160:3 161:4 539:3 570:1 611:5 643:3 899:1 964:5 1143:1 2520:2 2884:2 3584:1 4166:1 4938:2 6995:1 7180:2 7377:2 8186:3 8515:1 11281:1 11786:1 13312:1 14300:2 15298:1 20413:1 20786:1 20787:1 20788:1 31001:2 37446:1 40383:3 44096:2 44103:1 44420:1 47054:2 47067:4 47068:1 49943:1 49948:2 49960:1 49962:1 50003:1 50022:1 50236:1 50246:1 50262:1 50280:3 50283:1 50596:1 50599:1 68188:1 89786:1 91855:1 93214:1 95035:1 118180:1 118186:1 127363:3 127364:2 127365:1 127366:1 127367:1 127368:1 127398:1 127399:1 127400:1 127401:1 127402:1 127403:1 127404:1 127676:1 127677:1 127678:1 127679:1 127680:1 127681:1 #
0.00055834350870157944003030481283645 1:1 8:2 10:18 13:1 14:3 20:2 21:2 23:1 27:1 28:2 31:1 43:1 48:1 68:7 75:2 82:1 83:2 88:1 107:2 109:2 111:1 117:1 123:1 128:1 131:1 133:1 137:1 150:4 151:1 161:2 162:2 189:1 214:1 226:3 242:2 252:2 254:1 285:1 287:1 306:2 336:1 408:1 409:2 411:1 460:2 480:1 509:1 572:2 711:1 747:1 780:1 787:1 810:1 849:1 941:1 964:2 966:1 973:1 996:1 1063:1 1069:1 1076:1 1254:1 1289:1 1531:1 1533:1 1815:1 2007:2 2037:1 2461:1 2835:1 3229:2 3541:1 3716:3 4241:1 4323:2 5398:2 5655:1 6161:1 6729:1 6942:2 10320:2 13389:2 13737:1 13826:1 15523:2 21940:2 26639:1 72604:1 72690:1 #
-0.00055834350870157944003030481283645 1:1 8:3 10:11 13:1 14:3 19:3 20:6 21:2 23:2 25:1 28:2 48:3 51:3 68:2 82:4 86:1 88:3 91:1 111:1 115:1 117:1 118:1 123:1 124:4 128:2 133:2 162:1 163:1 175:1 177:1 226:1 242:3 254:1 288:1 294:1 327:1 409:1 437:1 450:1 481:1 548:1 558:1 568:1 643:1 720:1 910:1 966:1 1051:2 1065:1 1180:1 1216:1 1289:1 1798:1 1933:1 2028:1 2513:1 2530:1 2951:1 2952:1 3017:1 3347:1 3378:1 3387:1 3471:1 3472:8 3550:2 3584:5 3921:1 3999:4 4246:1 4556:1 5146:2 5338:1 5391:1 5614:2 5829:1 6164:1 6966:1 7150:3 8306:2 8959:1 14665:5 14771:4 34671:1 50667:1 50686:1 50741:5 56082:1 56083:1 #
-0.00055834350870157944003030481283645 1:1 8:6 9:1 10:17 13:1 14:3 19:1 27:2 28:9 32:1 43:3 48:1 56:10 64:2 66:1 68:4 75:2 91:1 111:2 115:1 117:2 123:1 127:1 128:2 133:1 137:1 140:1 150:4 159:1 162:2 164:1 167:4 198:1 226:8 227:1 242:2 252:2 292:1 294:1 306:4 327:1 367:1 403:2 408:1 409:1 491:1 510:1 519:1 544:1 548:2 572:8 576:1 601:2 720:1 739:1 741:2 769:1 770:1 788:1 850:1 876:1 877:1 896:1 951:1 964:3 1005:1 1156:1 1180:1 1201:1 1242:1 1372:3 1593:1 1625:1 1688:1 1729:1 1797:1 1813:1 2078:1 2131:1 2145:3 2172:1 2195:10 2235:1 2325:1 2405:1 2440:2 2519:3 2618:1 2672:1 2765:1 2835:1 2939:2 3003:1 3004:1 3311:1 3495:1 3810:1 4283:2 4317:1 4333:1 4356:1 4521:1 4915:1 5368:10 5370:1 5371:1 5372:1 5373:1 5374:1 5377:1 5378:1 5379:1 5380:1 5381:1 5382:1 5383:1 5396:1 5397:1 5398:1 5399:1 5400:1 5401:1 5402:1 5403:1 5404:1 5843:1 10711:1 11227:2 11228:1 11229:1 #
-0.00055834350870157944003030481283645 1:1 8:1 10:4 19:1 20:55 28:1 40:2 56:2 68:3 70:1 88:1 160:1 161:1 336:1 436:1 572:1 687:1 964:2 1888:1 2519:1 2520:1 2940:1 3347:1 3397:1 4465:1 5052:1 5249:2 5255:1 6161:1 6949:1 8356:1 11787:1 12357:1 15681:2 15814:1 15815:1 15816:1 #
0.00055834350870157944003030481283645 1:1 8:5 10:38 13:1 14:1 19:4 20:13 21:1 23:3 28:8 29:1 39:1 51:1 59:1 68:1 70:26 71:1 74:1 82:1 83:1 99:2 128:1 160:2 161:1 163:5 198:1 224:1 240:1 241:1 262:2 306:2 409:2 601:1 643:4 729:3 839:1 874:2 964:13 1034:7 1094:2 1146:1 1216:1 1268:1 1312:52 1317:1 1367:1 1542:1 1593:5 1743:2 1830:1 2007:1 2452:1 2516:2 2520:1 2711:1 2974:1 3186:1 3241:1 3298:1 3549:1 3665:1 3704:1 3808:1 4130:1 4166:2 4218:1 4333:3 4500:2 4698:1 4989:1 6066:1 6680:1 6759:1 6813:1 6922:2 7249:1 7377:1 7458:1 7476:2 7742:1 7746:1 7823:6 8116:3 8537:2 8649:1 9060:1 9528:1 9937:2 10606:1 10983:1 11179:1 11572:1 11906:1 12491:2 12605:3 13389:1 13453:1 14532:1 15562:1 19733:2 20018:1 20391:1 21012:1 21013:1 23505:2 23876:1 26034:1 26103:1 27124:1 27723:1 32237:1 41170:1 41922:1 42220:1 43229:1 46072:1 47437:1 49941:1 54195:1 56376:1 58075:1 59284:1 64760:3 64761:1 64762:1 64763:2 64764:1 64765:1 64766:1 64767:1 64768:1 64769:2 64770:2 64771:1 64772:1 64773:1 64774:1 64775:1 64776:1 64777:1 64778:1 64779:1 64780:1 64781:1 64782:5 64783:1 64784:1 64785:1 64786:1 64787:1 64788:1 64789:1 64790:1 64791:1 64792:1 64793:1 64794:1 64795:1 64796:1 64797:1 64798:1 64799:1 64800:1 64801:1 64802:1 64803:1 64804:1 64805:1 64806:1 64807:1 64808:1 64809:1 64810:1 64811:1 64812:1 64813:1 64814:1 64815:1 64816:1 64817:1 64818:1 64819:1 64820:1 64821:1 64822:1 64823:1 64824:1 64825:1 64826:1 64827:1 64828:1 64829:1 64830:2 64831:1 64832:1 64833:1 64834:1 64835:1 64836:1 64837:1 64838:1 64839:1 64840:2 64841:2 64842:1 64843:1 64844:1 64845:1 64846:1 64847:1 64848:1 64849:1 64850:1 64851:1 64852:1 64853:1 64854:1 64855:1 64856:1 64857:1 64858:1 64859:1 64860:1 64861:1 64862:1 64863:1 64864:1 64865:1 64866:1 64867:1 64868:1 64869:1 64870:1 64871:1 64872:1 64873:1 64874:1 64875:1 64876:1 64877:1 64878:1 64879:1 64880:1 64881:1 #
-0.00055834350870157944003030481283645 1:1 8:2 10:3 19:1 20:6 21:1 40:1 110:3 129:2 145:2 148:1 207:3 208:2 209:2 546:1 730:2 736:1 738:1 852:1 920:1 1034:3 1068:2 1396:1 2903:1 2904:1 3078:1 3629:1 4630:1 9497:2 10825:1 10826:1 10827:1 #
0.00045595212028285954722339745615045 1:1 2:1 8:39 9:5 10:29 13:1 14:42 15:17 19:8 20:9 21:2 23:1 25:2 27:5 28:5 40:25 41:1 42:1 43:6 47:1 48:19 54:1 63:1 68:26 78:1 81:1 83:12 88:4 103:1 109:5 111:27 115:1 117:27 123:3 128:9 133:1 137:10 140:1 177:2 191:3 202:2 214:1 226:7 227:1 236:1 242:1 243:3 246:2 270:1 274:3 285:1 288:1 291:1 294:1 305:1 306:8 334:1 337:1 403:4 405:1 409:1 436:1 455:1 460:6 466:1 498:1 500:3 501:3 518:1 525:2 527:1 531:1 533:3 536:1 539:1 540:2 541:2 547:2 548:3 558:3 560:4 575:1 606:1 614:4 619:1 628:1 635:1 646:1 647:1 673:1 704:3 715:1 718:1 726:1 833:1 835:1 836:1 876:1 877:1 910:4 941:1 980:1 1008:13 1018:1 1034:2 1047:5 1053:2 1076:2 1083:1 1110:2 1133:1 1143:1 1148:1 1215:3 1302:1 1321:1 1330:1 1355:9 1367:1 1443:1 1539:1 1548:1 1555:1 1599:1 1619:1 1649:1 1744:1 1798:1 1905:1 2084:2 2145:1 2197:1 2205:2 2216:1 2221:1 2241:1 2248:1 2272:1 2305:1 2325:2 2432:1 2436:1 2448:1 2518:1 2524:1 2554:1 2556:6 2567:1 2569:2 2588:1 2618:1 2689:2 2738:1 2819:5 2822:1 2852:1 2869:2 3063:1 3078:3 3095:5 3104:2 3199:1 3250:4 3316:1 3323:1 3335:3 3348:2 3351:2 3365:9 3399:1 3465:1 3486:2 3505:4 3523:1 3537:1 3550:3 3553:2 3728:6 3810:4 3812:1 3813:1 3815:1 3818:1 3831:1 3858:8 3864:1 3877:2 3891:2 3923:13 3945:1 3988:1 3990:3 4000:1 4018:8 4027:1 4048:1 4315:6 4676:1 4694:1 4939:4 4952:2 5078:2 5261:1 5391:10 5444:1 5453:1 5556:1 5593:1 5681:1 6321:1 6393:1 6398:1 6485:1 6567:1 7648:2 7717:1 7778:9 7838:1 7906:1 8044:1 8699:1 8809:1 8958:1 9059:1 9062:5 9107:1 9987:1 9994:1 10234:1 10315:1 10375:2 10432:1 10624:10 10727:2 11379:1 11776:1 11914:1 11931:9 11964:2 14631:2 14766:1 15805:1 16154:1 16372:1 17628:1 17680:2 17804:3 17880:1 17972:1 19653:1 19982:10 20925:3 22548:1 24052:4 27010:1 27835:1 28670:6 28719:6 28730:1 33110:1 38279:1 39921:1 48597:3 49903:6 49906:8 49907:1 49908:10 49909:1 49910:1 49911:1 49912:1 49913:1 49914:1 120367:1 127055:1 127056:1 #
-0.00055834350870157944003030481283645 1:1 8:1 14:5 19:2 20:6 28:2 40:2 48:2 91:1 128:1 173:2 210:1 214:2 224:2 306:1 334:1 398:1 460:1 516:1 560:1 654:1 660:1 909:1 1312:1 1395:1 1423:1 1662:1 2313:2 2787:2 3253:1 3343:2 4395:1 5475:1 5811:1 14657:1 14828:1 23161:1 39490:1 52297:1 63721:1 #
0.00055834350870157944003030481283645 1:1 14:1 68:1 150:1 214:1 332:1 408:2 539:1 548:1 568:1 572:1 966:2 974:1 2884:1 3495:1 3876:1 4272:1 4939:1 15999:1 50307:1 #
-0.00055834350870157944003030481283645 1:1 8:2 10:3 13:1 14:1 20:1 51:1 54:1 75:1 109:1 124:2 150:1 164:1 223:1 226:2 325:2 332:1 363:1 364:1 365:1 403:2 437:1 454:1 508:1 595:1 1063:3 1632:1 2005:1 2566:1 2858:1 4466:1 5607:1 5608:1 7628:1 8930:1 #
0.00055834350870157944003030481283645 1:1 8:1 10:5 14:4 19:1 25:1 28:1 39:1 40:4 48:1 54:1 68:1 81:1 83:1 128:2 137:1 150:2 232:1 292:1 460:3 489:1 491:1 517:1 548:2 572:1 628:1 673:1 981:1 1004:1 1012:1 1341:1 1387:1 1571:1 2785:1 3397:1 4793:1 4827:1 4865:1 7542:1 7565:2 8733:1 9752:1 13104:1 17521:1 17636:1 20984:1 24129:1 37215:1 55432:1 77736:1 85183:1 90541:1 92062:1 96408:1 122691:1 122692:1 122693:1 122694:1 122695:1 122696:1 #
-0.00055834350870157944003030481283645 1:1 8:2 10:9 14:2 19:3 20:3 21:1 25:3 28:5 40:2 43:3 48:1 56:2 68:4 70:2 75:4 76:1 111:4 115:1 117:4 128:1 140:1 150:4 162:5 166:2 173:2 191:2 214:1 226:2 242:1 294:1 306:3 327:1 332:1 403:1 408:2 437:1 536:1 548:2 558:1 559:1 572:4 575:2 576:1 601:2 636:1 679:1 680:2 711:1 720:1 769:1 770:1 787:2 917:2 930:1 960:1 964:3 1097:1 1180:2 1241:1 1270:1 1426:1 2060:1 2131:1 2152:1 2405:1 2461:2 2519:1 2520:1 2521:2 2581:1 2631:2 2699:2 3626:1 3707:2 3810:1 4132:1 4344:2 4572:1 4779:3 4939:2 5470:1 11841:1 12631:1 13483:1 13779:1 14084:1 29895:1 35439:1 50664:1 57200:1 57201:2 57202:2 58848:1 58849:1 58850:1 58851:1 58852:1 #
0.00055834350870157944003030481283645 1:1 8:3 10:6 14:3 19:1 25:2 40:3 43:4 47:1 48:1 51:1 68:8 75:1 81:1 83:1 84:1 93:1 109:3 118:1 123:1 124:1 131:1 135:1 150:5 226:6 236:1 242:1 252:1 292:1 306:1 309:2 403:4 408:1 409:1 491:1 494:2 501:1 539:1 541:1 548:4 572:4 575:1 643:1 718:2 769:1 954:1 955:1 1152:3 1255:1 1260:1 1269:1 1327:1 1357:1 1406:2 1538:1 1547:1 1591:2 1744:1 1997:1 2048:1 2054:1 2117:1 2547:1 2922:1 2928:1 3768:1 3796:1 4528:1 4837:1 4996:1 5052:2 5579:1 6078:1 6080:1 7835:1 9325:1 9774:1 10593:1 #
0.00055834350870157944003030481283645 1:1 8:1 10:2 14:1 19:2 20:33 25:1 28:29 40:1 47:1 48:1 56:4 68:1 81:1 83:1 137:1 150:1 163:1 214:1 224:1 340:1 408:1 539:1 576:1 718:1 844:1 1102:1 1404:1 1498:1 1592:1 1675:1 1749:1 2197:1 2198:1 2462:1 2513:2 2519:1 2520:1 2801:1 2884:1 3701:1 3913:2 4179:1 5188:1 5622:1 6041:1 6098:1 6634:1 7184:1 7952:1 8733:1 8863:1 8985:1 10017:1 10741:1 10912:1 11774:1 11782:1 12135:2 12523:1 13647:1 13651:1 14174:1 14183:1 14524:1 15185:1 15993:1 16223:1 16627:1 17412:1 17567:1 19191:1 20261:1 20274:1 20277:1 20438:1 20441:1 20448:1 20450:1 20527:1 20641:1 20642:1 20984:1 21020:1 21555:1 22210:1 22212:1 22393:1 22601:1 22603:1 22604:1 25382:1 27703:1 29954:1 29958:1 29970:1 31446:1 37365:1 38565:1 39337:1 39339:1 41032:1 41034:1 41090:1 41109:1 41250:1 41305:1 41456:1 41470:1 41504:1 41505:1 42710:1 42711:1 42712:1 42713:1 42714:1 42715:1 42716:1 42717:1 42718:1 42719:1 42720:1 42721:1 42722:1 42723:1 42724:1 42725:1 42726:1 42727:1 42728:1 42729:1 42730:1 42731:1 42732:1 42733:1 42734:1 42735:1 42736:1 42737:1 42738:1 42739:1 42740:1 42741:1 42742:1 42743:1 42744:1 42745:1 42746:1 42747:1 42748:1 42749:1 42753:1 42830:1 43030:1 43033:1 45360:1 45363:1 45405:1 46638:1 46657:1 118238:1 118239:1 118240:1 118241:1 118242:1 118243:1 #
-0.00055834350870157944003030481283645 1:1 8:5 10:13 13:2 14:10 19:1 20:35 21:1 23:1 27:3 28:4 40:2 48:7 63:1 68:3 70:1 82:3 83:1 88:2 94:6 107:1 109:2 111:4 117:4 118:1 121:1 123:1 128:3 137:1 140:1 150:3 226:2 227:1 232:1 236:2 248:1 306:3 336:1 403:2 460:1 495:1 531:1 576:1 601:1 628:1 636:1 639:1 646:1 747:1 945:2 974:1 1134:1 1325:1 1377:2 1642:1 1645:1 1690:1 1798:1 1849:1 1894:1 2007:1 2196:2 2268:1 2322:1 2563:1 2575:1 2581:1 2601:1 2671:1 2981:1 3031:1 3050:1 3086:1 3093:1 3094:1 3181:1 3408:1 3574:1 3723:1 4143:1 4284:2 4317:1 4371:2 4408:1 4790:1 6992:1 7327:1 7887:1 8535:2 8536:1 8890:1 9956:1 11388:1 12605:1 15145:3 15148:1 21313:1 22276:2 22309:1 24570:1 36507:1 47838:1 50664:1 51151:1 52013:1 52046:2 54403:1 56421:1 56422:1 56423:1 56424:1 #
0.00055834350870157944003030481283645 1:1 8:3 10:3 19:2 20:1 21:1 27:2 39:2 40:2 43:2 48:2 56:12 60:1 68:1 76:1 82:2 83:5 99:2 115:2 123:1 128:7 133:1 137:5 150:2 160:2 162:1 163:1 172:6 182:1 200:1 210:1 218:1 232:1 252:1 254:1 364:1 365:1 460:1 539:7 540:1 541:1 587:1 596:1 730:1 787:1 874:2 917:1 1049:1 1076:1 1133:1 1179:1 1186:1 1206:1 1259:1 1296:1 1531:1 1533:1 1899:1 2272:1 2584:1 2614:1 2785:1 2966:1 3460:1 3584:14 3710:1 5555:1 5678:1 7844:1 8540:1 9657:1 14494:1 14635:1 17016:1 17588:1 20111:1 22575:1 22576:1 22577:1 22578:1 22579:1 22580:1 22581:1 22582:1 22583:1 22584:1 22585:1 22586:1 22587:1 22588:1 22589:1 22590:1 22591:1 22592:1 22593:1 22594:1 22595:1 22596:1 22597:1 #
0.00055834350870157944003030481283645 1:1 8:7 10:15 14:12 17:1 19:3 20:1 25:2 31:3 32:1 33:2 40:7 43:1 48:3 51:1 63:2 68:3 78:1 82:22 83:5 86:1 88:2 94:4 115:1 123:4 124:1 132:3 137:1 140:1 149:1 150:2 226:1 228:1 232:1 242:3 252:3 254:2 270:2 285:1 286:3 287:1 297:2 302:1 306:5 311:1 321:2 337:2 364:2 365:4 408:2 442:1 460:10 514:1 519:1 531:1 533:1 539:10 572:2 613:1 624:1 643:1 646:5 660:1 672:1 704:1 780:2 942:1 974:1 975:2 1000:1 1076:1 1080:1 1083:1 1124:1 1141:2 1145:1 1164:1 1201:1 1259:1 1270:1 1295:1 1352:1 1412:2 1560:1 1609:1 1645:2 1662:1 1729:1 2082:1 2130:2 2139:2 2172:1 2177:1 2210:1 2216:1 2256:1 2524:1 2617:2 2773:1 2795:1 2813:1 2827:1 2834:1 3077:1 3321:1 3460:1 3523:1 3704:1 3753:1 4081:1 4204:1 4335:2 4763:1 4777:3 4976:1 5387:1 5657:1 5990:1 6025:1 6159:1 6895:1 6985:1 7873:2 7979:1 13379:1 14449:1 15999:2 16301:1 17179:1 17518:3 19320:1 20941:1 21977:1 32260:1 32685:1 41194:1 49283:4 49502:1 49503:1 49504:1 49505:1 49506:1 49507:1 #
-0.00055834350870157944003030481283645 1:1 8:36 10:26 13:4 14:3 20:4 25:4 26:1 27:3 28:1 33:2 40:8 41:8 43:3 47:7 48:2 51:4 54:1 56:6 61:2 68:12 74:1 75:1 79:3 88:2 109:2 118:2 126:2 128:2 140:2 149:1 150:4 160:2 161:2 162:5 163:10 167:4 171:3 177:1 226:4 232:1 240:1 252:6 254:1 284:3 287:1 297:6 306:1 337:1 348:1 365:1 403:2 405:1 408:1 436:1 487:4 500:1 510:1 525:1 531:1 539:10 540:1 541:1 547:2 548:2 558:1 560:2 563:8 572:5 576:3 577:1 601:2 613:3 635:1 636:1 643:1 645:2 656:5 687:1 718:2 724:13 741:1 762:2 770:1 781:2 788:2 835:1 836:4 876:1 898:1 909:1 962:1 964:6 981:1 990:1 995:1 1008:1 1077:1 1080:1 1201:1 1229:2 1241:2 1242:1 1268:1 1310:1 1332:1 1406:1 1475:1 1530:1 1531:39 1533:39 1538:2 1609:2 1625:1 1650:3 1723:1 1810:3 2007:1 2084:2 2098:2 2131:1 2155:1 2195:3 2268:1 2441:4 2502:2 2513:3 2552:1 2743:2 2835:1 2928:1 3099:1 3315:1 3323:3 3348:1 3398:3 3465:1 3468:1 3619:1 3693:1 3696:1 3843:2 3878:1 3888:3 3910:1 3963:1 4023:1 4285:1 4291:2 4318:1 4330:1 4334:2 4342:1 4345:1 4356:3 4364:1 4640:1 4796:1 4803:2 4897:1 5027:1 5249:2 5300:1 5337:1 5378:2 5478:1 6035:1 6077:1 7117:1 7130:3 7606:39 7611:1 7810:1 7855:2 7857:1 8066:1 9267:2 9457:1 9743:1 9744:4 10828:2 11287:2 11412:1 11487:1 11732:2 11734:1 11974:1 12317:2 12972:1 13169:1 13478:1 14403:1 15504:1 16338:2 17419:7 19653:2 19654:2 19655:1 19656:2 19657:2 19658:3 19659:3 19660:1 19661:1 19662:1 19663:1 19664:1 19665:2 19666:1 19667:2 19668:1 19669:1 19670:1 19671:1 19672:1 19673:1 19674:1 19675:1 19676:1 19677:1 19678:1 19679:1 #
0.00055834350870157944003030481283645 1:1 8:45 10:33 13:2 14:45 15:1 19:22 20:24 25:11 27:7 28:10 29:2 32:1 40:20 41:1 43:6 48:21 51:3 54:3 56:1 63:1 68:19 70:2 74:2 75:1 81:3 82:1 83:4 88:5 109:6 111:3 115:9 117:3 118:4 123:9 124:1 125:2 128:22 137:14 140:1 149:3 150:1 155:1 162:1 163:2 169:1 177:1 180:2 182:2 186:1 191:3 200:1 223:1 226:5 227:5 228:2 241:2 242:7 252:1 270:1 272:1 286:3 287:3 290:1 291:1 292:2 293:1 302:2 306:9 309:2 327:2 336:1 337:4 357:1 365:3 373:1 396:1 403:11 405:3 407:2 408:2 409:1 413:1 450:1 452:1 460:7 485:5 487:2 489:1 491:3 498:1 501:1 517:1 518:1 519:1 523:1 531:3 537:1 539:6 540:1 541:1 549:2 558:2 560:1 601:1 606:1 613:1 614:3 617:1 618:3 622:1 628:1 632:6 645:2 646:1 655:1 656:3 668:1 673:1 687:1 708:1 713:1 715:1 751:3 754:1 776:1 819:1 865:1 876:2 887:1 903:4 916:1 964:4 966:1 974:2 999:1 1012:1 1022:1 1033:2 1047:2 1048:1 1076:4 1094:1 1102:1 1133:3 1155:2 1179:1 1189:1 1225:1 1253:2 1259:1 1268:1 1321:1 1322:1 1327:2 1341:13 1379:1 1394:4 1407:4 1547:3 1548:1 1573:1 1599:2 1646:1 1649:1 1655:1 1665:1 1676:2 1715:1 1717:1 1808:1 1818:1 1819:1 1821:1 1930:1 1939:3 1966:1 1974:2 1998:1 2023:1 2064:1 2065:1 2102:2 2172:1 2200:1 2220:1 2221:1 2235:1 2251:1 2257:2 2319:1 2389:1 2400:1 2432:2 2440:1 2568:1 2570:1 2588:1 2617:1 2631:1 2701:1 2705:1 2707:1 2738:1 2741:1 2753:2 2761:1 2774:1 2796:1 2810:2 2814:1 2830:1 2869:3 2880:1 2937:1 2938:2 2949:1 2951:1 3043:1 3052:1 3069:1 3167:1 3268:1 3340:1 3398:1 3489:1 3501:1 3553:1 3626:1 3665:1 3666:1 3807:1 3847:1 3878:1 3887:2 3889:1 3891:1 3908:1 3913:1 3972:1 4087:1 4098:1 4170:1 4226:6 4304:1 4309:2 4402:1 4404:1 4411:2 4448:1 4587:1 4612:1 4633:1 4641:1 4656:1 4778:1 4796:1 4882:2 4891:1 4937:1 4976:1 5027:1 5097:1 5141:1 5142:1 5145:2 5177:1 5361:1 5440:1 5475:1 5477:1 5557:2 5674:1 6019:1 6041:1 6049:1 6058:2 6202:1 6248:1 6557:2 6567:1 6634:1 6641:1 6688:1 7041:2 7087:1 7096:4 7100:2 7122:1 7144:3 7451:2 7531:1 7610:1 7835:1 7861:1 7915:1 8924:2 9142:1 9276:2 9328:1 9357:4 9454:1 9778:1 9883:1 9890:1 9958:1 9979:1 9989:1 10233:1 10276:2 10312:1 10315:2 10426:2 10797:1 10880:1 11099:1 11496:1 11702:1 11838:1 11914:1 11928:1 12439:1 12462:1 12554:7 12637:1 12852:3 12909:3 13056:1 13169:1 13447:1 13643:1 14526:1 14573:1 14644:1 15048:5 15163:1 15174:1 15196:2 15848:1 15956:1 16241:1 16644:1 17272:1 17644:1 19677:1 19903:1 20051:1 20478:1 20515:1 21054:1 22272:1 22492:2 23436:1 23442:1 23645:1 24877:1 25155:1 25224:1 25228:1 25840:1 28767:1 29812:11 29819:1 32885:6 33656:3 35844:1 36891:1 37472:4 37585:5 38524:1 40361:1 42614:1 42820:3 42911:4 42944:2 45101:1 46372:2 47915:1 48696:5 49794:1 50354:1 50464:1 50611:1 54210:1 55749:1 56816:1 58771:1 60741:2 61862:1 62595:1 62864:1 64126:3 64127:3 64131:13 66154:2 71981:1 73733:1 74264:1 76126:1 78364:1 78523:1 79177:1 79213:1 81754:1 83597:1 84052:1 89581:2 89891:3 90650:1 92012:1 104872:1 128010:2 136681:22 136682:1 136683:1 136684:2 136685:2 136686:5 136687:2 136688:3 136689:1 136690:1 136691:1 136692:1 136693:2 136694:1 136695:1 136696:1 136697:1 136698:1 136699:1 136700:3 136701:1 136702:3 136703:1 136704:1 136705:1 136706:1 136707:1 136708:1 136709:1 136710:1 136711:4 136712:1 136713:1 136714:1 136715:1 136716:1 #
0.00055834350870157944003030481283645 1:1 8:48 10:39 13:1 14:41 19:8 20:24 21:4 22:3 23:2 25:8 27:7 28:13 29:1 32:6 34:2 38:1 40:12 41:2 42:2 43:16 47:2 48:13 51:1 54:3 56:14 62:1 63:2 68:23 75:6 76:1 78:1 81:1 83:5 88:3 92:1 103:1 109:6 111:17 117:16 118:1 123:7 124:3 128:23 131:7 133:2 134:1 137:8 140:6 150:11 151:1 155:1 162:8 163:9 167:10 177:3 180:1 191:1 200:6 211:1 213:1 214:4 215:1 226:15 227:4 228:1 240:2 241:4 242:4 254:2 266:1 286:5 287:1 290:1 294:1 297:1 306:12 309:1 311:6 326:6 327:3 328:1 365:5 381:4 403:10 408:5 409:1 437:4 452:1 460:4 466:1 491:2 494:1 495:1 497:1 498:1 501:2 503:1 516:1 525:1 544:1 548:1 554:1 560:1 562:3 568:1 570:3 572:4 576:3 577:1 579:1 604:2 611:1 620:1 622:2 627:2 628:2 632:5 639:2 643:2 648:2 652:1 654:1 656:1 668:1 669:3 670:1 680:1 713:1 736:1 750:4 762:1 763:7 766:2 853:1 872:2 873:2 874:1 876:4 907:1 930:1 949:1 954:1 961:1 964:3 966:1 974:1 975:1 989:2 1014:1 1021:3 1034:1 1035:9 1049:1 1065:1 1074:1 1077:1 1094:7 1124:1 1132:2 1134:1 1142:1 1163:2 1164:1 1171:3 1196:1 1215:1 1220:3 1225:1 1245:1 1268:1 1303:1 1304:1 1311:2 1312:1 1327:1 1341:3 1367:3 1387:1 1394:3 1403:1 1404:1 1412:1 1428:1 1531:2 1533:2 1542:1 1547:1 1579:1 1609:1 1610:1 1626:1 1633:1 1648:2 1649:1 1650:2 1665:10 1688:3 1709:1 1883:1 1925:1 1996:3 2004:2 2058:1 2087:1 2096:1 2112:1 2140:6 2172:2 2199:1 2200:1 2238:1 2252:1 2274:1 2285:3 2421:1 2440:2 2445:1 2466:1 2508:1 2519:2 2520:2 2561:3 2563:1 2580:1 2601:6 2627:1 2631:1 2694:3 2724:1 2738:3 2753:4 2773:1 2836:1 2849:1 2869:6 2936:1 2938:1 2939:2 2951:1 2990:1 3004:1 3018:1 3024:1 3034:4 3050:1 3052:1 3057:1 3086:1 3094:2 3105:2 3108:4 3126:1 3157:1 3243:1 3322:1 3461:1 3463:5 3489:1 3494:3 3545:1 3551:1 3563:1 3608:5 3818:3 3835:1 3852:1 3870:10 3891:1 3893:2 3933:1 3936:1 3952:2 3965:1 3983:2 3990:1 4032:1 4041:1 4132:3 4247:2 4269:1 4285:1 4301:3 4311:2 4342:1 4388:1 4404:1 4463:1 4518:1 4521:1 4567:1 4572:2 4587:1 4668:1 4718:1 4749:1 4755:6 4957:6 5007:1 5010:1 5037:1 5088:1 5188:1 5249:1 5300:1 5398:1 5452:1 5557:2 5927:1 5965:2 6040:1 6049:1 6062:2 6188:2 7044:1 7111:1 7150:1 7194:1 7536:2 8065:1 8089:4 8532:1 8901:1 8998:1 9000:1 9046:3 9095:1 10036:1 10315:3 10616:1 10725:3 10727:1 11118:1 11457:1 11487:1 11563:1 11914:1 12052:1 12535:2 13249:2 13336:1 13460:1 13483:2 13952:3 14073:1 14591:1 14649:1 14723:2 16384:1 16466:1 17020:1 17078:2 17257:8 17690:2 17691:2 19525:2 20782:1 22465:6 22466:3 24188:2 24296:1 27153:1 27921:2 29272:1 31550:1 32297:3 34418:2 35911:1 36673:1 36828:1 39568:1 39887:1 39944:1 50887:1 52032:1 54150:1 54489:1 54497:1 57790:1 64261:4 68959:1 68960:1 68961:1 68962:1 68963:1 68964:5 68965:1 68966:1 68967:1 68968:1 68969:1 68970:1 68971:1 68972:1 68973:1 68974:1 #
0.00055834350870157944003030481283645 1:1 8:3 10:1 19:1 20:1 31:11 43:1 78:1 83:5 133:1 137:5 150:3 162:3 163:1 167:1 409:2 525:1 563:5 572:1 715:1 724:2 730:1 876:2 915:2 1593:1 2209:1 2436:1 2672:1 3501:1 3809:1 4883:3 4897:1 6763:1 7679:1 11711:1 20830:1 64541:3 71397:3 71398:1 #
0.00055834350870157944003030481283645 1:1 8:12 10:13 20:21 23:1 28:2 30:1 33:1 43:1 50:1 56:2 75:1 160:1 168:1 182:2 252:1 607:1 681:1 747:1 917:2 954:1 964:1 1207:1 1593:1 1692:1 1906:1 2520:1 3031:1 3623:2 9931:1 10992:1 12277:1 14403:1 17262:1 20277:4 20402:1 20436:4 20618:1 20642:4 20643:4 20683:4 20684:1 20685:1 20686:1 21037:1 23257:1 23346:1 24375:1 24412:1 24481:1 25970:1 26484:1 26801:1 28695:1 28764:1 32888:1 34361:1 35811:1 35902:1 54813:1 57916:1 90537:1 100510:1 100511:1 100512:1 100513:1 100514:1 100515:1 100516:1 100517:1 100518:1 100519:1 100520:1 100521:1 100522:1 100523:1 100524:1 100525:1 100526:1 100527:1 100528:1 100529:1 100530:1 #
-0.00055834350870157944003030481283645 1:1 8:1 10:1 13:1 14:1 28:1 29:2 39:2 40:1 42:1 56:5 68:2 75:1 89:1 109:1 110:1 160:1 170:2 200:1 272:1 403:1 413:1 491:1 563:1 620:1 711:1 725:1 727:1 847:1 871:1 1247:2 2544:1 3522:1 3688:2 3689:1 3690:1 5280:1 12041:1 12042:1 #
0.00055834350870157944003030481283645 1:1 8:1 28:1 42:1 103:1 150:1 231:1 306:1 364:1 877:1 2880:1 10432:1 15477:1 16708:1 30125:1 31067:1 34006:1 36746:1 39077:1 90992:1 101506:1 102873:1 119580:1 119581:1 119582:1 119583:1 119584:1 119585:1 119586:1 119587:1 119588:1 #
-0.00055834350870157944003030481283645 1:1 8:4 10:6 13:2 14:8 19:1 20:3 40:2 43:1 48:4 54:2 68:1 82:4 88:3 99:3 109:2 123:2 126:1 128:1 133:1 150:1 226:2 227:2 228:3 232:1 242:3 248:2 284:1 306:1 309:2 311:2 337:1 363:1 364:1 396:3 403:1 408:1 458:1 491:1 508:2 519:1 576:1 614:1 631:1 702:1 704:1 715:2 719:2 851:1 954:1 1008:1 1140:1 1146:1 1180:1 1222:1 1230:1 1244:1 1394:1 1405:1 1619:1 1650:1 1744:1 1753:1 2037:1 2278:1 2360:1 2387:1 2858:1 3031:3 3485:1 3623:1 3901:2 5546:1 7092:1 9394:1 10115:1 15418:1 28818:1 50667:1 50668:1 54756:1 58210:1 64067:1 64068:1 #
0.00055834350870157944003030481283645 1:1 8:2 10:16 13:1 14:3 20:1 27:1 28:4 31:1 43:1 68:7 70:1 75:2 82:1 83:2 107:2 109:2 111:1 117:1 123:1 128:2 131:1 133:1 137:1 150:3 161:3 162:1 214:1 226:2 227:1 242:1 252:1 257:1 306:1 336:1 407:1 408:1 409:1 411:1 460:1 509:1 572:2 711:1 729:3 780:1 849:1 941:1 966:1 973:1 1069:1 1076:1 1254:1 1289:1 1531:1 1533:1 1815:1 2007:2 2037:1 2131:1 2416:1 2835:1 3229:2 3388:1 3716:1 4236:1 4241:1 5398:2 5655:1 6161:1 6233:1 6729:1 9569:1 10320:2 12605:3 21940:2 72550:1 72604:1 72715:1 72716:3 72717:1 #
-0.00055834350870157944003030481283645 1:1 8:2 10:10 14:15 19:4 25:1 40:3 43:1 48:7 68:8 82:5 90:1 101:1 107:1 115:2 123:4 124:2 128:4 150:3 164:1 213:1 227:1 228:1 232:1 242:2 286:3 357:2 364:1 497:1 508:3 531:2 558:1 560:1 572:4 575:4 604:1 607:2 613:1 623:1 633:1 656:2 661:1 715:1 781:1 974:2 1009:1 1063:1 1076:1 1088:1 1137:1 1163:2 1201:1 1228:1 1268:1 1282:1 1303:2 1394:2 1405:1 1623:1 1641:1 1648:1 1905:1 2037:1 2058:1 2136:1 2251:1 2322:1 2418:5 2464:1 2566:1 2601:2 3394:1 3462:1 3523:4 4347:1 4656:1 4696:1 4765:1 4777:1 5031:1 5605:1 6146:1 7717:1 8109:1 8811:1 8821:1 8954:1 11910:1 13953:1 16670:1 17256:1 19722:3 28591:1 53663:1 54630:1 56293:1 62358:1 #
-0.00055834350870157944003030481283645 1:1 8:21 10:7 14:1 20:1 23:3 25:1 27:1 28:1 40:2 41:2 42:12 43:1 48:1 51:1 54:4 56:2 68:7 75:1 76:1 78:1 82:2 86:1 93:1 94:1 104:1 109:1 111:1 117:1 123:1 124:2 127:1 128:2 140:1 150:3 163:1 171:1 182:1 192:1 205:1 226:3 232:2 242:3 254:2 284:1 306:1 332:2 363:1 364:1 403:1 408:1 409:1 490:1 544:1 572:3 576:2 690:1 715:1 718:1 729:1 775:2 785:2 810:3 893:1 974:1 983:1 990:1 1008:2 1059:2 1094:2 1143:1 1392:1 1404:1 1524:1 1582:1 1798:1 2090:1 2176:2 2195:1 2221:1 2636:1 2922:1 2937:1 3178:4 4376:1 4690:2 5259:2 5472:1 6123:1 6141:2 6726:1 7904:2 9090:1 10893:1 12428:1 12660:1 16606:1 27690:1 42072:1 56934:1 58928:1 59070:2 59071:1 #
0.00055834350870157944003030481283645 1:1 8:3 10:8 13:1 20:1 28:4 30:2 43:1 56:4 59:2 68:2 70:1 82:2 86:1 109:1 123:1 150:2 160:2 210:1 226:1 252:1 403:1 408:1 460:1 531:1 539:1 652:1 680:1 876:2 964:1 973:1 1034:1 1051:1 1405:1 1406:1 1531:1 1533:1 1570:1 1737:2 2007:1 2131:1 2195:1 2400:1 2441:2 2519:1 2617:1 3617:1 3843:1 4329:2 4938:1 4988:1 5050:1 5593:1 15315:1 26874:2 28495:1 34142:1 41544:1 41545:1 46211:1 123559:1 #
0.00055834350870157944003030481283645 1:1 8:3 10:6 13:1 14:1 22:2 25:3 39:1 40:1 54:3 83:2 91:4 102:1 117:1 125:1 133:1 137:2 167:7 226:1 227:2 236:1 242:1 251:1 285:1 287:1 291:1 294:1 306:2 323:1 327:3 361:2 450:1 460:1 533:1 558:1 644:1 715:2 763:1 787:1 917:1 999:1 1133:1 1268:1 1380:1 1746:1 2145:1 2167:1 2175:1 2272:1 2363:2 2380:1 2582:1 2631:1 3104:1 3221:1 3380:1 3829:1 3957:1 3972:1 4048:2 4311:1 4362:1 4467:1 4520:1 4690:1 4813:2 4914:3 5054:2 5193:1 5441:2 5444:1 6906:2 7883:2 7903:2 9057:1 11845:1 12275:1 15585:6 19618:1 19982:1 20258:1 23504:1 23653:1 33334:2 41112:3 41114:1 50693:1 58829:1 65178:1 116596:1 #
-0.00055834350870157944003030481283645 1:1 5:1 8:1 10:8 13:1 14:2 19:1 20:54 21:1 23:2 28:1 39:1 40:1 47:2 51:1 56:4 61:2 68:2 70:1 78:2 115:2 118:1 128:3 162:1 200:2 287:1 468:1 514:1 539:3 635:1 738:1 835:1 964:2 1241:1 1265:1 1753:1 2146:1 2359:1 2364:1 2519:1 2520:1 2922:1 2928:1 3324:1 3348:2 3957:1 5052:1 5249:2 6738:2 10148:1 11787:1 12264:1 13447:2 14451:1 15681:3 15814:1 16693:2 16694:1 16695:1 16862:1 16863:1 #
-0.00055834350870157944003030481283645 1:1 7:1 10:8 14:3 28:2 43:1 48:1 54:1 56:5 70:1 88:1 101:2 104:1 133:1 150:1 162:1 163:1 227:1 228:1 348:1 480:1 558:1 563:1 741:1 955:4 960:1 964:2 1593:2 2405:1 2519:1 2690:1 2845:1 2855:1 3164:2 4170:1 6150:1 6233:1 10811:1 11304:1 17315:1 17316:1 17317:1 98113:1 98492:1 99246:1 #
0.00055834350870157944003030481283645 1:1 10:5 19:2 40:1 43:1 83:1 109:1 123:2 133:1 137:1 252:1 306:3 327:1 533:1 539:1 558:1 715:1 748:1 1148:1 1341:1 1420:1 2741:1 4415:1 4741:1 12135:1 14172:1 15489:1 17626:1 17909:1 19662:1 20304:1 20975:1 22394:1 24263:1 27649:1 30696:1 33034:1 37156:1 37157:1 43546:1 48333:1 53224:1 69447:1 69448:1 #
0.00013153511405488360012233650664371 1:1 8:11 10:23 13:2 14:4 19:2 20:7 25:1 28:1 31:5 40:12 43:7 47:1 48:4 54:1 56:3 63:1 68:11 79:1 82:16 83:3 89:1 94:3 109:5 123:2 124:1 125:1 128:2 131:1 133:1 150:2 155:2 164:1 167:6 216:1 224:1 226:3 228:2 232:1 236:1 242:3 248:1 252:2 286:3 290:1 293:1 306:3 311:1 315:1 327:1 365:1 408:1 460:5 501:1 508:1 517:1 527:1 535:1 539:4 541:2 572:3 575:2 576:1 581:1 623:2 624:2 632:1 643:1 656:1 658:1 660:1 679:1 718:1 729:1 770:2 780:1 785:1 887:1 915:1 943:1 966:2 974:2 995:1 999:1 1075:2 1228:1 1259:1 1296:1 1303:1 1320:1 1321:1 1367:1 1395:1 1406:1 1560:1 1641:2 1694:1 1809:1 1905:2 2051:1 2061:1 2102:1 2130:2 2137:1 2160:1 2519:1 2524:2 2614:1 2623:1 2671:1 2936:1 2951:1 3148:1 3348:3 3402:4 3665:1 3714:1 3891:1 3926:2 3977:1 4272:2 4683:1 4777:1 4882:1 4939:2 5052:1 5374:2 5692:5 5697:1 5773:1 6360:1 7682:1 7978:1 8034:1 9506:1 9748:1 9940:1 10238:1 12080:1 12139:1 12631:2 13200:1 14525:1 15183:1 15691:1 17335:1 20975:1 24569:1 25155:1 26110:1 27165:1 28421:5 29973:1 31054:1 34153:3 49456:6 49710:3 49711:1 49712:1 49713:1 67894:1 67895:1 #
0.00055834350870157944003030481283645 1:1 10:3 19:1 20:1 28:3 48:1 50:1 56:5 137:1 163:1 177:1 572:1 964:1 1663:1 2519:1 2520:1 3321:1 3559:1 3891:1 4407:1 5194:1 6567:1 28767:1 30340:1 53764:1 114645:1 #
0.00055834350870157944003030481283645 1:1 10:24 14:2 19:4 20:1 28:1 40:3 43:9 44:1 162:3 163:7 306:6 408:6 539:3 660:4 886:4 1322:1 1443:1 1534:1 1622:1 1655:4 1686:1 1939:1 2561:1 2711:1 2753:1 2765:1 2830:1 3190:1 3354:1 3672:1 3809:1 4453:1 5497:1 6486:1 6962:1 7290:1 7880:1 7903:1 8820:1 9051:1 9938:1 9951:1 9966:1 10925:1 12557:1 13606:1 14855:1 14972:1 15048:1 15428:1 16384:1 16626:1 18322:1 19615:1 20015:1 20257:1 20667:1 21242:1 21308:1 21775:1 23002:1 23081:1 24455:1 24497:1 24907:1 24910:1 25045:1 25076:1 25139:1 25322:1 25793:1 25803:1 26157:1 26362:1 26381:1 26456:1 26521:1 26878:1 26914:1 26977:1 26988:1 27085:1 27322:1 27805:1 30085:1 30178:1 30671:1 30933:1 31079:1 31098:1 31843:1 31867:1 32154:1 32369:1 32709:1 33019:1 33705:1 33841:1 33968:1 33997:1 34327:1 34377:1 34512:1 34808:1 35358:1 35828:1 35841:1 35919:1 35927:1 36458:1 37071:1 37256:1 37367:1 37372:1 37378:1 37495:1 37569:1 37657:1 37677:1 37717:1 37725:1 37980:1 38938:1 39168:1 39199:1 40221:1 40350:1 40499:1 40822:1 40845:1 42024:1 42219:1 44274:1 45284:1 45391:1 45840:1 46197:1 46417:1 46443:1 48518:1 48931:1 48996:1 49034:1 49166:1 49227:1 49229:1 50890:1 51475:1 53053:1 55360:1 55512:1 59710:1 68579:1 85993:1 86033:1 86412:1 87026:1 87190:1 87193:1 90448:1 90515:1 91441:1 93244:1 95254:1 95948:1 101734:1 102549:1 103623:1 103678:1 104114:1 104766:1 105883:1 106051:1 110509:1 112142:1 115655:1 118497:1 126623:1 #
-0.0003256669855513025235715929284197 1:1 8:7 10:7 14:10 19:8 25:2 40:3 48:10 50:1 56:1 60:1 68:12 75:1 76:1 78:1 82:1 83:1 88:4 94:1 111:4 115:1 117:4 123:4 124:3 128:2 137:1 140:1 150:1 151:1 159:1 162:1 167:4 182:1 228:2 232:1 236:1 242:6 251:2 252:1 254:1 288:1 294:2 302:1 306:3 323:2 337:1 409:1 437:1 458:1 460:1 508:1 544:1 548:2 549:1 572:1 576:1 607:1 623:1 643:1 660:1 663:1 679:2 680:2 713:1 715:1 769:1 787:1 856:1 937:1 1162:1 1175:1 1200:1 1221:1 1222:3 1242:1 1253:1 1388:1 1407:2 1579:1 1623:1 1649:1 1729:1 1747:2 1797:1 1806:4 1815:1 1846:1 1855:2 2251:1 2371:1 2427:1 2554:1 2592:1 2628:1 2632:1 3016:1 3126:3 3266:1 3311:2 3397:1 3443:1 3767:1 3810:1 4292:1 4394:1 5050:1 5106:1 5123:1 5566:1 5572:1 5576:1 5812:1 6383:1 6436:1 7066:1 8305:1 8523:1 9164:1 10313:1 16628:1 16911:1 48600:1 #
0.00055834350870157944003030481283645 1:1 8:6 10:11 13:1 14:1 19:2 20:18 21:1 25:1 28:3 40:1 56:11 63:1 68:2 75:1 82:1 88:1 123:1 124:2 140:1 150:2 155:1 163:6 164:1 169:1 210:1 216:1 226:1 409:1 587:1 955:1 966:1 1176:1 1216:1 1255:1 1312:1 1593:2 1669:1 1749:1 2359:1 2519:1 2520:1 2884:1 2939:1 3523:1 4077:1 4335:1 4530:1 4921:1 5255:1 6609:1 6735:1 11131:1 17670:3 20532:1 20861:1 32591:1 32594:1 34826:1 34827:3 114846:1 114847:1 114848:1 114849:1 114850:1 114851:1 114852:1 114853:1 114854:1 114855:1 114856:1 114857:1 114858:1 114859:1 114860:1 114861:1 114862:1 114863:1 114864:1 114865:1 114866:1 114867:1 114868:1 114869:1 114870:1 114871:1 114872:1 114873:1 114874:1 114875:1 114876:1 114877:1 114878:1 114879:1 114880:1 114881:1 114882:1 114883:1 114884:1 114885:1 114886:1 114887:1 114888:1 114889:1 114890:1 114891:1 114892:1 114893:1 114894:1 114895:1 114896:1 114897:1 114898:1 114899:1 114900:1 114901:1 114902:1 114903:1 114904:1 114905:1 114906:1 114907:1 114908:1 114909:1 114910:1 114911:1 114912:1 114913:1 114914:1 114915:1 114916:1 114917:1 114918:1 114919:1 114920:1 114921:1 114922:1 114923:1 114924:1 114925:1 114926:1 114927:1 114928:1 114929:1 114930:1 114931:1 114932:1 114933:1 114934:1 114935:1 114936:1 114937:1 114938:1 114939:1 114940:1 114941:1 114942:1 114943:1 114944:1 114945:1 114946:1 114947:1 114948:1 114949:1 114950:1 114951:1 114952:1 114953:1 114954:1 114955:1 114956:1 114957:1 114958:1 114959:1 114960:1 114961:1 114962:1 114963:1 114964:1 114965:1 114966:1 114967:1 114968:1 114969:1 114970:1 114971:1 114972:1 114973:1 114974:1 114975:1 114976:1 114977:1 114978:1 114979:1 114980:1 114981:1 114982:1 114983:1 114984:1 114985:1 114986:1 114987:1 114988:1 114989:1 114990:1 114991:1 114992:1 114993:1 114994:1 114995:1 114996:1 114997:1 114998:1 114999:1 115000:1 115001:1 115002:1 115003:1 115004:1 115005:1 115006:1 115007:1 115008:1 115009:1 115010:1 115011:1 115012:1 115013:1 115014:1 115015:1 115016:1 115017:1 115018:1 115019:1 115020:1 115021:1 115022:1 #
0.00055834350870157944003030481283645 1:1 8:2 10:3 13:1 14:3 27:1 28:1 32:2 48:1 68:1 70:1 117:1 124:1 140:2 150:1 167:7 518:1 548:1 558:2 718:2 730:1 964:1 974:1 1036:1 1322:1 1555:4 1593:3 1649:1 2594:1 2741:1 2852:1 3495:1 3810:1 4356:2 5567:1 5593:1 7377:1 10833:1 25294:1 25358:3 93960:1 130078:1 130079:1 130080:1 130081:1 130082:2 130083:1 130084:1 130085:1 130086:1 130087:1 130088:1 130089:1 130090:1 130091:1 130092:1 130093:1 130094:1 130095:1 130096:1 130097:1 130098:1 130099:1 130100:1 130101:1 130102:1 130103:1 130104:1 #
0.00055834350870157944003030481283645 1:1 8:2 10:4 14:3 19:1 20:4 25:1 27:2 28:1 40:3 43:1 48:1 54:1 68:1 88:1 94:1 96:1 111:1 117:1 123:1 124:2 128:1 137:1 150:4 160:3 161:3 162:2 169:1 177:1 210:1 226:4 232:1 242:3 252:1 306:1 408:1 489:1 498:1 514:1 533:1 548:1 558:1 607:1 705:1 718:2 751:1 908:1 943:2 1012:1 1067:1 1076:2 1648:1 1886:1 2001:1 2016:1 2307:1 2557:1 2753:1 2792:1 2993:1 4352:1 4356:2 4612:1 5097:1 5249:1 5559:1 6238:1 6255:1 11363:1 11909:1 11997:1 18659:1 19162:1 28812:1 35345:1 41929:1 44305:1 131023:1 #
-0.00055834350870157944003030481283645 1:1 8:1 9:1 10:3 14:2 19:1 20:3 43:2 48:2 64:1 68:1 121:1 124:1 127:1 128:2 150:1 164:1 232:1 249:1 251:3 252:1 287:1 306:1 310:1 364:1 508:1 590:1 619:1 660:2 835:1 896:1 1075:1 1122:1 1143:1 1341:2 2557:1 2981:1 3243:2 3989:1 10199:1 16661:2 16662:1 16663:1 16664:1 16665:1 #
0.00055834350870157944003030481283645 1:1 8:3 10:1 19:1 20:1 31:11 43:1 78:1 83:5 133:1 137:5 150:3 162:3 163:1 167:1 409:2 525:1 563:5 572:1 715:1 724:2 730:1 876:2 915:2 1593:1 2209:1 2436:1 2672:1 3501:1 3809:1 4883:3 4897:1 6763:1 7679:1 11711:1 20830:1 64541:3 71397:3 71399:1 #
0.00020148099628375981174667475048778 1:1 8:5 10:6 13:1 14:2 19:1 27:2 28:3 40:2 43:1 48:3 68:4 75:1 83:2 88:1 90:1 91:1 109:1 111:1 115:2 116:1 117:1 123:2 124:3 128:2 133:1 140:2 149:1 150:10 151:1 152:1 162:1 177:1 226:1 242:2 246:1 327:1 364:1 408:2 437:1 525:1 539:1 540:1 541:1 544:1 548:4 571:1 574:1 576:1 613:1 636:1 652:2 770:1 1083:1 1216:1 1268:1 1311:1 1423:1 1531:1 1533:1 1538:1 1650:1 2070:1 2100:1 2294:1 2323:1 2445:1 2507:1 2563:2 2631:1 2671:1 2690:1 2849:1 3078:1 3495:1 3704:1 3877:1 4106:3 4330:1 4433:1 4598:1 4897:1 5027:1 6378:1 6383:1 6399:3 6557:1 7612:1 7910:1 10931:1 11592:1 12292:1 16949:1 18524:1 19657:3 19878:1 20178:3 20927:1 24520:1 24916:1 25335:1 26051:1 26195:1 27146:1 27258:1 27588:1 28206:1 28692:1 30008:1 30208:1 30454:1 31043:1 32176:1 32870:1 33099:1 33388:1 33389:3 33391:1 33709:1 33918:1 34755:3 35878:1 36628:1 37816:1 38777:1 39890:1 40355:1 40838:1 41575:1 42170:1 42173:2 42525:1 42796:1 43181:1 43210:1 43211:1 43212:1 43221:1 43225:1 43428:1 43429:1 43430:1 43431:1 43432:1 43433:1 43434:1 43435:1 43436:1 43437:1 43438:1 43439:1 43440:1 43441:1 #
0.00055834350870157944003030481283645 1:1 10:7 14:1 19:2 28:1 40:1 43:1 56:2 68:1 82:1 83:2 137:2 242:2 306:1 460:1 531:1 643:1 656:1 681:1 729:1 853:1 1076:1 1225:1 1394:1 2519:1 2812:1 3069:1 4285:2 5077:1 5319:1 5871:1 6735:1 9452:1 12537:1 12545:1 20304:1 20436:1 23049:1 40600:1 40857:1 49708:1 133702:1 133703:1 133704:1 133705:1 #
-0.00055834350870157944003030481283645 1:1 8:1 10:7 14:8 19:2 25:2 28:2 43:3 54:1 56:2 68:4 101:1 109:3 111:1 115:1 117:1 128:1 137:1 167:6 226:2 242:1 290:2 306:1 413:4 490:1 501:1 572:1 656:1 713:1 885:1 964:1 1125:1 1162:1 1244:1 1286:1 1394:1 1522:1 2007:1 2131:2 2403:1 2519:1 2949:1 3752:1 3810:2 4321:1 5142:1 5371:1 6261:1 6686:1 8686:4 9005:2 10545:6 15354:1 #
0.00055834350870157944003030481283645 1:1 8:3 13:1 20:2 28:2 41:1 68:1 75:1 83:1 137:1 165:1 166:1 173:1 202:1 214:1 252:1 259:1 408:1 460:1 539:1 572:2 718:1 1075:1 1269:1 2007:1 2356:1 2505:1 2690:1 3418:1 3647:1 3724:1 4317:1 4356:1 4722:1 5050:1 12189:1 13191:1 17078:1 20413:1 21686:1 23595:1 30077:1 32975:1 35783:1 39466:1 40189:1 40841:1 46486:1 48265:1 49298:1 84458:1 87044:1 89311:1 97087:1 102848:1 119091:1 #
-0.00055834350870157944003030481283645 1:1 8:3 10:4 14:2 20:2 43:1 75:1 78:1 88:1 107:1 109:1 115:2 128:1 150:1 164:1 177:1 232:1 242:1 254:1 290:1 306:1 333:1 408:1 558:1 576:1 645:1 646:1 990:1 1152:1 1187:1 1380:1 2084:1 3227:1 3243:1 3591:1 6992:1 8109:1 10988:1 12350:1 17485:1 47245:1 129305:1 #
-0.00055834350870157944003030481283645 1:1 10:3 13:1 14:1 68:2 75:1 82:2 107:1 123:1 133:1 134:1 140:1 150:2 162:1 226:1 232:2 332:1 363:1 364:1 403:1 408:2 460:1 521:1 574:1 575:1 719:1 1077:1 1656:1 2408:1 2464:1 2621:1 6871:1 #
0.00055834350870157944003030481283645 1:1 8:1 10:7 13:2 14:2 28:1 32:1 40:2 48:3 51:1 68:9 75:2 78:1 79:1 109:2 124:4 128:2 140:1 150:5 151:2 162:1 163:1 177:2 226:2 228:1 232:1 242:3 252:3 306:1 327:1 403:1 408:2 409:2 424:1 539:1 548:3 558:1 576:1 601:2 643:1 656:1 687:2 711:1 718:1 780:1 847:1 966:1 1076:1 1137:1 1146:1 1162:1 1241:2 1268:1 1303:1 1394:1 1397:1 1444:1 1645:1 1691:1 1692:1 1886:1 2060:2 2084:2 2175:1 2730:1 2746:1 2938:1 3008:1 3398:2 3843:1 4352:1 4356:1 4408:1 4425:1 4796:1 5037:1 6768:1 7004:1 7695:1 14327:1 15669:2 21033:1 22202:1 23132:1 24347:1 25242:2 26648:1 30746:2 30747:1 66509:1 #
-0.00055834350870157944003030481283645 1:1 8:6 10:11 14:4 15:1 19:3 20:1 27:2 28:1 32:1 40:2 48:4 56:2 63:1 68:2 76:1 78:3 81:2 82:7 83:3 94:1 111:1 117:1 118:1 123:1 125:3 128:1 140:3 150:4 155:1 160:1 161:1 163:5 177:1 232:1 242:1 286:5 302:1 309:1 321:2 363:1 364:1 365:1 367:1 409:1 460:2 523:1 525:1 541:3 560:1 562:1 572:1 626:1 646:1 655:1 660:2 680:1 715:1 766:2 788:1 964:1 995:1 1012:1 1076:1 1259:3 1282:1 1402:1 1585:1 1609:1 1654:1 1790:1 1843:1 2073:1 2130:1 2131:1 2155:1 2267:1 2417:1 2519:1 2547:1 2561:1 2614:1 2617:1 2713:1 2744:1 2785:1 2788:1 3719:1 3971:1 4166:2 4331:1 4532:1 4777:1 5097:1 5204:1 5930:1 6019:1 6720:1 9755:2 11424:2 12481:1 14978:1 15734:1 26529:1 30662:1 35347:1 57806:1 78404:1 98705:1 98706:1 98707:1 #
-0.00055834350870157944003030481283645 1:1 8:1 10:2 14:1 28:1 40:1 41:1 56:6 91:1 109:1 111:3 117:3 124:1 127:1 182:1 200:1 242:1 246:1 362:1 403:1 436:1 450:1 455:1 487:1 491:1 874:2 924:1 943:1 944:1 980:1 990:3 996:1 1247:1 2421:1 3181:1 3315:1 3923:4 5806:1 11883:1 11887:1 12091:1 12201:1 14561:1 58884:1 73609:1 99259:1 #
0.00055834350870157944003030481283645 1:1 8:2 10:2 14:4 20:2 40:1 48:1 54:1 68:1 88:1 109:2 130:1 133:1 150:2 163:1 242:1 558:1 572:1 623:1 660:1 753:1 1124:1 1662:1 1688:2 2057:1 2468:1 3973:1 4997:1 5078:1 5261:1 8899:2 14234:1 17008:1 20431:1 20527:1 29256:1 32298:1 37159:1 45132:1 67857:1 68490:1 #
0.00055834350870157944003030481283645 1:1 8:1 10:5 20:9 51:1 86:1 111:11 117:11 144:1 163:32 167:3 287:2 539:3 596:1 730:1 785:1 1819:2 2812:1 3202:1 3385:1 4226:2 6640:1 6662:1 7284:1 8530:1 8665:2 8824:1 8876:1 9315:1 11036:1 12180:1 14085:2 14585:1 15204:1 22205:1 22206:3 25280:17 25281:11 25282:12 25283:9 38864:11 38865:4 45081:1 47570:1 50463:1 54146:1 62149:1 71672:1 79770:1 109205:1 109206:2 109207:1 109208:1 109209:1 #
-0.00055834350870157944003030481283645 1:1 8:1 10:11 13:1 14:6 19:1 20:6 21:1 25:2 40:6 43:1 47:2 48:1 51:1 54:1 56:3 59:1 68:7 71:1 82:3 90:1 94:5 109:7 111:1 117:1 118:1 123:2 124:3 128:4 133:2 134:1 140:3 144:1 148:1 150:3 152:1 161:1 162:5 163:7 177:2 226:1 232:1 242:2 285:2 287:1 290:2 291:2 294:1 299:2 302:1 306:2 327:1 363:1 364:1 403:5 408:1 409:2 450:1 490:1 495:1 509:1 544:1 558:2 568:2 619:1 620:2 621:2 623:1 648:1 718:1 747:1 785:1 836:1 876:1 877:3 974:2 976:1 998:1 1076:1 1077:2 1088:1 1143:1 1179:1 1270:2 1538:1 1539:1 1555:1 1602:1 1821:1 1857:1 1877:1 2216:1 2217:1 2302:1 2304:1 2403:1 2405:1 2431:1 2445:1 2731:1 2886:1 2919:2 2938:1 3108:1 3110:1 3178:3 3229:1 3320:4 3787:3 3871:2 3956:1 4003:3 4284:1 4410:1 4785:1 5391:1 5452:5 5494:1 5709:1 6549:1 6896:1 6963:1 8998:2 10486:1 12086:1 15382:1 19742:1 45360:1 51049:1 75242:1 75846:1 129286:2 129287:2 129288:1 129289:1 #
-0.00055834350870157944003030481283645 1:1 7:1 9:1 10:5 14:2 19:1 20:4 22:23 25:1 43:1 48:1 51:1 59:1 64:1 68:1 75:1 78:1 82:1 115:2 116:1 123:1 127:1 128:1 131:1 133:1 140:2 164:1 186:1 226:1 248:1 252:1 294:1 306:1 318:1 319:1 333:1 334:1 337:1 484:1 492:1 503:2 514:1 531:1 572:1 619:1 660:1 687:1 701:1 718:1 783:3 872:1 917:3 1201:1 1220:1 1227:1 1231:1 1235:2 1247:1 1330:1 1431:1 1479:1 1580:1 1687:1 1717:1 1729:1 1785:1 1830:1 1951:1 1959:1 2093:1 2542:2 2546:1 3099:1 3775:1 3990:1 4609:1 5360:1 5737:1 6027:1 6078:1 6121:1 6223:1 7194:1 7565:1 7804:1 8013:1 8370:1 8372:1 8392:1 8410:1 8428:1 8429:1 8432:1 8433:1 8434:1 8435:1 8436:1 8437:1 8438:1 8439:1 8440:1 8441:2 8442:1 8443:1 8444:1 8445:1 8446:1 8447:1 8448:1 8449:1 8450:1 8451:1 8452:1 8453:1 8454:1 8455:1 8456:1 8457:1 8458:1 8459:1 8460:1 8461:1 8462:1 8463:1 8464:1 8465:1 8466:2 8467:1 8468:1 8469:1 8470:1 8471:1 8472:2 8473:1 8474:2 8475:1 8476:1 8477:1 8478:1 8479:1 8480:1 8481:1 8482:1 8483:1 8484:1 8485:1 8486:1 8487:1 #
-0.00055834350870157944003030481283645 1:1 10:4 13:1 14:1 20:3 27:1 28:1 29:1 48:1 68:4 75:1 83:2 88:2 101:1 102:1 109:1 115:1 124:1 128:3 137:1 140:1 389:4 403:1 430:1 437:2 491:1 533:2 539:1 617:1 632:1 643:1 738:1 978:1 1154:1 1341:2 2041:1 2055:3 2402:1 2509:1 2634:1 2830:1 3227:3 3811:1 3923:1 4035:1 4449:1 4459:1 4497:2 5743:1 6884:1 10011:1 11305:1 11347:1 98843:2 #
